4
W1
4 128
relu
0.23516958951950073 0.03721340745687485 -0.010610080324113369 0.14964596927165985 0.13845890760421753 -0.3109571635723114 0.05611975118517876 -0.10537764430046082 -0.2284419983625412 0.0640086904168129 0.04445226863026619 -0.35328271985054016 -0.0009019175195135176 -0.023685229942202568 0.028080202639102936 0.2964644730091095 0.06784427911043167 -0.029260428622364998 0.013710089959204197 0.0038129331078380346 -0.18728835880756378 0.24202655255794525 0.3051649332046509 0.2681772708892822 0.06755664199590683 0.1380521059036255 -0.03797713294625282 0.05816232040524483 -0.1459069699048996 0.1774168610572815 0.09238284826278687 0.06399408727884293 -0.16238375008106232 0.050931453704833984 0.2948329448699951 0.06240232661366463 0.1386660933494568 -0.061240304261446 0.05448058620095253 0.05481521785259247 0.31171858310699463 0.1331017017364502 0.24487921595573425 0.028510598465800285 -0.09980779886245728 0.11126838624477386 -0.008304369635879993 0.2763846218585968 -0.007229865062981844 0.3821905553340912 -0.17550012469291687 -0.13080675899982452 -0.3014453947544098 0.25841274857521057 -0.09405000507831573 0.21357204020023346 -0.14885279536247253 0.018367186188697815 0.03125179931521416 0.02806907333433628 0.17076051235198975 -0.24091163277626038 -0.35159891843795776 -0.1413608342409134 0.2601495385169983 -0.3305436372756958 -0.15908223390579224 0.1357756406068802 0.036667656153440475 0.3068491816520691 0.0056066797114908695 0.014201724901795387 -0.21602842211723328 0.05519244074821472 0.034737784415483475 0.10046814382076263 0.16700924932956696 0.3776281177997589 0.12064289301633835 -0.14884980022907257 0.2691076099872589 0.3641465902328491 -0.05506887659430504 0.41036465764045715 0.03830674663186073 -0.012221996672451496 0.2327040731906891 0.04158344864845276 0.04118383675813675 0.3058471083641052 -0.15297454595565796 0.04410300403833389 0.03480936959385872 0.19766674935817719 0.32366234064102173 0.011936626397073269 0.0017789772246032953 -0.13427047431468964 -0.25315502285957336 -0.047016944736242294 0.3438097834587097 0.09077772498130798 0.038788337260484695 0.05012157931923866 0.2042718529701233 0.11974839121103287 0.20144154131412506 -0.08942817151546478 0.044818516820669174 -0.1325790137052536 0.03996291384100914 0.3105843961238861 0.04805976524949074 0.1281619668006897 -0.17088624835014343 0.0249524787068367 0.028919484466314316 0.032018762081861496 -0.03948633000254631 -0.27738523483276367 -0.24025070667266846 0.052836786955595016 -0.13791832327842712 -0.21091251075267792 0.09410803020000458 0.2678731083869934 -0.17145897448062897 0.04260654002428055 0.19073078036308289 -0.04870247468352318 -0.04865112900733948 0.1286126971244812 -0.1805817186832428 0.01864461973309517 -0.05868282541632652 -0.05405820161104202 0.06657387316226959 -0.03479226678609848 -0.11165028810501099 0.04102945700287819 -0.0718773752450943 -0.0509759783744812 -0.02443992905318737 0.18610624969005585 -0.23115608096122742 -0.043817441910505295 -0.046517837792634964 -0.043281085789203644 0.06581342220306396 0.16830889880657196 0.18988320231437683 0.19153936207294464 -0.21707892417907715 -0.20657040178775787 -0.03352557495236397 0.13469554483890533 -0.23302963376045227 0.16125789284706116 -0.07256223261356354 -0.024395404383540154 -0.2327743023633957 -0.22336366772651672 0.17389419674873352 -0.009597979485988617 -0.19172118604183197 -0.21973229944705963 0.005661945324391127 -0.2318592369556427 0.18063902854919434 0.1726962924003601 0.1892024278640747 -0.20642776787281036 -0.14086593687534332 0.17405791580677032 -0.04913078621029854 0.19228175282478333 -0.014609596692025661 0.18133355677127838 -0.23293231427669525 -0.21082040667533875 0.06039562076330185 0.16773369908332825 -0.19140616059303284 0.18034492433071136 0.016200946643948555 -0.03610387444496155 -0.08884892612695694 -0.2546405792236328 0.15124283730983734 0.04166336730122566 0.09490441530942917 -0.21809014678001404 0.18963460624217987 0.05417967215180397 -0.22895793616771698 0.19674146175384521 -0.0013534993631765246 0.17508652806282043 -0.037632424384355545 -0.25154122710227966 0.012408447451889515 -0.24933253228664398 0.0058074756525456905 -0.050387851893901825 0.18525828421115875 0.17796823382377625 0.1843542903661728 -0.22105926275253296 0.18152913451194763 0.1899777054786682 -0.023846324533224106 0.18994349241256714 -0.031597767025232315 -0.21660152077674866 0.14034301042556763 -0.22284558415412903 -0.0657031387090683 0.1678304225206375 -0.21779941022396088 -0.02342158555984497 -0.04080260172486305 0.16535235941410065 0.17030493915081024 -0.05225545912981033 -0.05036143586039543 0.055379513651132584 0.0567498616874218 -0.042302459478378296 0.19397279620170593 0.1622479408979416 -0.046383801847696304 -0.05380311608314514 0.17766614258289337 0.20365364849567413 0.18001516163349152 -0.031460098922252655 -0.02122228965163231 -0.24155128002166748 -0.0816437378525734 0.19974149763584137 -0.026694418862462044 0.15113136172294617 -0.22231228649616241 -0.044925812631845474 -0.058417633175849915 -0.04785555601119995 -0.030104387551546097 0.06428208947181702 0.006598297972232103 -0.07760360836982727 -0.25010189414024353 0.04212445020675659 -0.049718815833330154 0.1820017695426941 -0.21683728694915771 -0.06027086079120636 -0.8919186592102051 0.3315264880657196 0.2830149233341217 -0.6178300976753235 1.0523523092269897 -0.6116846203804016 0.32534629106521606 0.2837282717227936 -0.3747696876525879 0.26606446504592896 0.6544760465621948 -0.5936059951782227 0.46571385860443115 0.2966059148311615 0.1813320517539978 -0.7776857614517212 1.3359521627426147 0.21709075570106506 0.3345531225204468 0.2223910689353943 -0.43031197786331177 -0.7005095481872559 -0.8245081305503845 -0.7801687717437744 1.2564897537231445 1.2247974872589111 0.19969378411769867 -0.682929515838623 2.2080304622650146 -0.7500824928283691 0.5795676112174988 0.21638788282871246 2.182432174682617 1.2090171575546265 -0.7229321599006653 0.13811135292053223 1.1462857723236084 1.1816824674606323 0.04069601744413376 1.368723750114441 -0.7521501183509827 -1.573229193687439 -0.8388907313346863 1.1458677053451538 1.3159364461898804 -0.8137373924255371 0.3072342276573181 -0.7714499235153198 0.064759261906147 -0.6898282170295715 2.124420404434204 2.0196962356567383 -0.5308468341827393 -0.7253084182739258 1.870673418045044 -0.7651249766349792 -0.3080439567565918 0.2433236986398697 0.6526250243186951 1.3584141731262207 -0.6343637108802795 -0.43018364906311035 -0.6181678175926208 2.0355734825134277 -0.7194600105285645 -0.5174000263214111 2.133136034011841 -1.8390257358551025 0.05004983767867088 -0.7293978929519653 0.2721499502658844 1.3224486112594604 -0.43424829840660095 1.4125075340270996 0.00829460471868515 0.4174497723579407 -1.6903115510940552 -0.6621218919754028 -1.7020314931869507 2.098482608795166 -0.7790447473526001 -0.7888774275779724 0.09487411379814148 -0.6593257188796997 0.194541797041893 1.1658076047897339 -0.5281803607940674 1.2171865701675415 0.4120194911956787 -0.6027594804763794 2.011666774749756 0.18607303500175476 0.32368212938308716 -0.7465344667434692 -0.6694956421852112 0.3859936594963074 0.26184698939323425 -0.4990752935409546 -0.4455402195453644 0.2017003893852234 -0.7882214784622192 -1.5883294343948364 0.3596642315387726 0.3906688988208771 -0.8266000747680664 -1.9497644901275635 -0.8024951815605164 0.10388335585594177 0.16389749944210052 2.2740559577941895 0.5073350071907043 -0.7757259607315063 0.23203472793102264 -1.333445429801941 2.0218019485473633 0.3135814070701599 0.3823474645614624 0.3064037263393402 0.12334716320037842 -0.4688166379928589 -0.36893507838249207 0.4671625792980194 2.354224681854248 -0.4112485349178314 0.41691768169403076 -0.833177924156189 2.0001089572906494 0.3497754633426666 -0.6805932521820068 -0.03578886762261391 0.06592364609241486 -0.47189971804618835 0.13771313428878784 0.19298610091209412 0.04633409157395363 0.0822131559252739 0.05093156546354294 -0.033015333116054535 0.033931512385606766 0.19050896167755127 0.02355656400322914 0.04547625780105591 0.02743913047015667 -0.7187652587890625 0.28182804584503174 0.061794355511665344 0.00020458591461647302 0.04510951042175293 0.04059731215238571 -0.5838025212287903 -0.7411229610443115 -0.6805838942527771 0.2123069167137146 0.15064972639083862 0.05126599594950676 -0.33101433515548706 0.14404571056365967 -0.5519352555274963 0.03217243030667305 -0.048753004521131516 0.16265751421451569 0.27929791808128357 -0.6890982389450073 -0.0724962055683136 0.16016697883605957 0.3461320400238037 -0.07475019991397858 0.2506067454814911 -0.7489206790924072 -0.1358386129140854 -0.6681896448135376 0.22572916746139526 0.08802128583192825 -0.4879283905029297 0.021547341719269753 -0.6925899982452393 -0.029082685708999634 -0.8045444488525391 0.1661759614944458 0.1336681842803955 0.12762030959129333 -0.6570552587509155 0.12257540971040726 -0.6040617227554321 0.10585692524909973 0.020411832258105278 -0.029835715889930725 0.31951844692230225 -0.5236855745315552 0.10498908162117004 0.10537663847208023 0.140996053814888 -0.6631134748458862 0.1931115686893463 0.15911731123924255 -0.136451855301857 -0.040913376957178116 -0.7007247805595398 0.045201003551483154 0.36840763688087463 -0.01000750157982111 0.2783934473991394 -0.10218839347362518 -0.005345738027244806 -0.16393938660621643 -0.7954786419868469 -0.11824529618024826 0.15113063156604767 -0.6520617008209229 -0.7139189839363098 0.07602640986442566 -0.8152672648429871 0.0030437945388257504 0.3119267523288727 -0.5194467306137085 0.2792978286743164 -0.006200048606842756 -0.6172772645950317 0.14844654500484467 0.004857213236391544 -0.012917310930788517 -0.6134192943572998 -0.7316031455993652 0.027932437136769295 0.09763748943805695 -0.05458875373005867 0.0854211375117302 0.0908820778131485 -0.7399184107780457 -0.08680302649736404 0.03689882159233093 -0.028066031634807587 -0.6167221069335938 -0.11700944602489471 -0.5572830438613892 0.10714521259069443 -0.04347895458340645 0.13556286692619324 0.04018411785364151 -0.7362276911735535 -0.04337805137038231 -0.10432600975036621 0.17182761430740356 0.002331577008590102 0.02897602878510952 0.014788868837058544 0.051540207117795944 0.13493391871452332 0.06605621427297592 0.0351831428706646 0.14066636562347412 0.06966462731361389 0.014022735878825188 -0.6747857928276062 0.17001944780349731 0.02643868885934353
b1
1 128
-1.0385977029800415 -0.3562212288379669 -0.3736049234867096 -0.793319821357727 -0.9891506433486938 -0.7197403907775879 -0.3981490135192871 -0.44226452708244324 -0.5675756931304932 -0.2627871632575989 -0.7781354188919067 -0.7233600616455078 -0.5443584322929382 -0.35672253370285034 -0.21285341680049896 -1.0113800764083862 -1.338866114616394 -0.30008170008659363 -0.3627138137817383 -0.31119829416275024 -0.647718071937561 -0.8750290870666504 -1.0371016263961792 -0.9756752848625183 -1.2130777835845947 -1.191691517829895 -0.2702373266220093 -0.7188770771026611 0.06582347303628922 -0.9225042462348938 -0.6529199481010437 -0.17077814042568207 0.1461755633354187 -1.2989872694015503 -0.9775192737579346 -0.0834936648607254 -1.0624059438705444 -1.2514084577560425 -0.0521605908870697 -1.3129875659942627 -1.024842619895935 0.00016642958507873118 -1.0122804641723633 -1.1403231620788574 0.07216531783342361 -0.9030423760414124 -0.38709643483161926 -1.018528699874878 -0.15361174941062927 -1.0357615947723389 0.029329154640436172 0.019138813018798828 -0.6511489152908325 -0.9757528305053711 0.0014742780476808548 -0.963758111000061 -0.3681442439556122 -0.263790100812912 -0.6242584586143494 -1.4144843816757202 -0.8164913654327393 -0.5370646715164185 -0.8302835822105408 0.29323601722717285 -0.9775797128677368 -0.6605000495910645 0.03628431260585785 0.08394192904233932 -0.01653004251420498 -0.9621498584747314 -0.3413218557834625 -1.4475969076156616 -0.6822106242179871 -1.3879717588424683 -0.14025083184242249 -0.4597214460372925 0.13064032793045044 -1.0139851570129395 0.02085283398628235 0.023513445630669594 -0.9799875020980835 -0.9729055762290955 -0.17252664268016815 -0.968178927898407 -0.21379463374614716 -1.2128026485443115 -0.7565890550613403 -1.2895259857177734 -0.5093726515769958 -0.8916837573051453 0.013139675371348858 -0.21544864773750305 -0.3131466507911682 -0.9757384657859802 -0.945877194404602 -0.5157209634780884 -0.3730778694152832 -0.7046014070510864 -0.6160917282104492 -0.3087988793849945 -0.9913540482521057 0.005112364422529936 -0.423991322517395 -0.36270737648010254 -1.0112452507019043 0.0893852487206459 -0.9096737504005432 -0.24302946031093597 -0.17575718462467194 0.20261378586292267 -0.5640756487846375 -0.9925540089607239 -0.2558579742908478 -0.0022692661732435226 0.1732504963874817 -0.32449930906295776 -0.416111022233963 -0.32339194416999817 -0.22339381277561188 -0.5283772945404053 -0.4930516481399536 -0.5320578813552856 0.10169955343008041 -0.5606051087379456 -0.431866317987442 -1.0468500852584839 0.04202999547123909 -0.41704514622688293
W2
128 256
relu
0.004480049945414066 0.7935149073600769 -0.05445188656449318 0.04228344187140465 0.04290356487035751 -0.04364167898893356 0.8684478998184204 0.009930022060871124 -0.042428966611623764 0.8139998912811279 0.7717996835708618 0.028915254399180412 -0.03778848052024841 -0.03051348775625229 -0.026955178007483482 0.7948406934738159 0.05247873067855835 -0.012166998349130154 -0.049850594252347946 0.013715129345655441 0.9382535815238953 -0.0013256478123366833 -0.0358414500951767 0.7804960012435913 -0.037861984223127365 -0.012380057945847511 -0.017169516533613205 -0.024038560688495636 0.7866500020027161 0.007850617170333862 -0.01035334449261427 0.8314749002456665 0.9716055393218994 0.7832544445991516 0.8693841695785522 0.03823527321219444 -0.013102605007588863 0.8531680703163147 0.6096277236938477 -0.06324298679828644 -0.08054240792989731 -0.030578678473830223 0.362407922744751 -0.07287712395191193 0.02572450414299965 0.0726507380604744 0.8391774296760559 -0.1359400749206543 0.2493365854024887 0.07209127396345139 0.5705133080482483 -0.09752106666564941 0.015525244176387787 0.042816370725631714 0.9295210838317871 0.08503976464271545 0.8401510119438171 -0.1386903077363968 0.6568402051925659 0.9314830303192139 0.7701971530914307 -0.03914669156074524 -0.0896325632929802 0.8964423537254333 -0.06198415532708168 0.8554199934005737 0.04801655933260918 0.8706088662147522 0.830962598323822 0.8726121783256531 0.8122645616531372 0.7417855858802795 -0.0810052752494812 0.0064779785461723804 0.919877827167511 -0.0733012929558754 -0.03597024455666542 0.04017327353358269 -0.07711714506149292 0.8125510215759277 -0.01868406869471073 0.5966938734054565 0.8908273577690125 -0.011389875784516335 -0.026826269924640656 -0.04393402114510536 0.8512248396873474 -0.05238987132906914 0.028511375188827515 -0.05657650902867317 0.8448126912117004 0.07140370458364487 0.7701937556266785 -0.0075600892305374146 -0.02805919386446476 -0.03559236600995064 0.06780244410037994 -0.13839533925056458 -0.0025352088268846273 -0.02415752038359642 -0.05276837572455406 -0.09393464773893356 0.8193758726119995 0.8399550914764404 0.026240043342113495 0.7079547643661499 -0.05876723304390907 0.8435388207435608 -0.030304746702313423 -0.047609347850084305 -0.041255783289670944 -0.03659714758396149 -0.002350906375795603 0.02092338725924492 -0.02506238967180252 0.9443708658218384 0.8756864666938782 0.005798491649329662 0.012148536741733551 0.8247462511062622 -0.0037711095064878464 0.8195337057113647 0.02410801872611046 0.805971622467041 0.10283135622739792 0.006911042612046003 0.06988132745027542 -0.02817751280963421 0.01605629175901413 0.02353566326200962 -0.0889589786529541 0.07433124631643295 -0.048129159957170486 0.7861888408660889 0.905279278755188 -0.12206012010574341 0.9348673820495605 0.9886196255683899 0.9393271207809448 0.8525484800338745 -0.030532807111740112 -0.08361915498971939 -0.06338679790496826 0.0032432973384857178 -0.032603248953819275 0.026535505428910255 -0.02961803413927555 0.7638635039329529 -0.11344079673290253 -0.07438106834888458 0.9024147391319275 -0.043665435165166855 0.02250785008072853 0.8214362859725952 -0.09814198315143585 0.8239040374755859 -0.0055510662496089935 0.007337661925703287 0.932391881942749 -0.05955006927251816 -0.027607740834355354 -0.008904794231057167 0.05716991424560547 0.06028147041797638 0.6907881498336792 -0.06453657150268555 -0.028215300291776657 0.880055844783783 -0.07207516580820084 0.7073132395744324 0.8455405235290527 -0.008227644488215446 0.8590489625930786 0.8175569176673889 -0.10677288472652435 0.09970072656869888 0.7677202224731445 0.8170995712280273 -0.016546649858355522 0.015466626733541489 0.4112703800201416 -0.030454598367214203 0.8693303465843201 -0.1258540004491806 0.7600781321525574 0.8239471912384033 -0.045578647404909134 -0.12407006323337555 0.9120234847068787 0.8504900932312012 0.010628552176058292 0.798204779624939 0.8791796565055847 -0.04669777676463127 0.025841055437922478 -0.121024951338768 0.7965449094772339 0.0010856501758098602 -0.03304470703005791 -0.019050398841500282 -0.05089377239346504 0.6503717303276062 -0.021890543401241302 0.03309610113501549 1.0049527883529663 -0.025103876367211342 -0.08217068761587143 0.05929006263613701 -0.10683266073465347 0.4332212209701538 0.8512654900550842 0.609562337398529 -0.12052077800035477 0.10348872095346451 0.9758495092391968 0.5870428085327148 -0.010486151091754436 0.05160236358642578 0.5489058494567871 -0.01930464804172516 0.8574699759483337 0.009967969730496407 -0.13561806082725525 0.8176268339157104 -0.025197694078087807 -0.0310813020914793 0.8460128903388977 0.09009598195552826 -0.029880572110414505 -0.05045415461063385 0.8931713700294495 0.7818173170089722 0.04778733104467392 -0.13389205932617188 0.8948995471000671 -0.07844162732362747 -0.07092568278312683 0.06992175430059433 -0.09232348948717117 0.04391590505838394 -0.026510808616876602 -0.03389276564121246 -0.05992204695940018 0.8196556568145752 0.8696768879890442 0.08791881054639816 0.7963943481445312 0.002998446812853217 -0.10647881776094437 0.04735060781240463 -0.11655882000923157 0.007141792681068182 0.8513628840446472 0.13390520215034485 -0.08139093220233917 0.6503651738166809 0.06514044106006622 0.10784126073122025 0.07144170999526978 -0.07546967267990112 -0.010908001102507114 0.06336408108472824 0.009394154883921146 -0.00988189596682787 0.031117962673306465 0.05080418288707733 0.14358747005462646 0.02031228505074978 0.05768415704369545 0.0345991775393486 0.12294703722000122 0.06677483767271042 -0.0022710126359015703 -0.031888674944639206 -0.0038303255569189787 -0.09169615805149078 -0.006909885909408331 0.044156789779663086 0.05132406949996948 -0.004729832522571087 -0.037647027522325516 -0.045834220945835114 0.12598389387130737 0.038612015545368195 0.03759971633553505 -0.01161540113389492 0.07266362756490707 -0.005395722109824419 -0.007282600272446871 0.1045244038105011 0.1135135143995285 0.05152001604437828 0.0019392571412026882 0.1069617047905922 -0.030580198392271996 -0.09282089024782181 -0.032633330672979355 0.0067016445100307465 0.02123660035431385 0.016382312402129173 0.07618356496095657 0.010081961750984192 -5.1262573833810166e-05 0.21677078306674957 0.13939547538757324 0.020132385194301605 0.17848095297813416 0.08185258507728577 0.01880495436489582 0.05410800874233246 -0.01254367921501398 0.06293969601392746 0.06682179868221283 0.16747072339057922 0.06448956578969955 0.031940046697854996 0.043216340243816376 -0.07545521855354309 0.05333271250128746 0.11439026147127151 -0.08732131123542786 0.1232948824763298 0.019056057557463646 -0.006488949526101351 0.1276649683713913 0.09671912342309952 0.03252736106514931 0.0905013307929039 0.031294338405132294 0.0869750827550888 0.11748407036066055 0.001238159486092627 0.03699915111064911 -0.13890288770198822 0.06755073368549347 -0.028085902333259583 -0.03380732610821724 0.14486311376094818 -0.17877115309238434 0.01733887568116188 -0.0003023633034899831 0.1419558972120285 0.035548388957977295 0.11080104112625122 -0.05149156227707863 0.03400144726037979 0.11714748293161392 0.025356531143188477 0.058133237063884735 -0.041700661182403564 0.06547238677740097 -0.12056086212396622 0.06745412200689316 -0.002236748579889536 0.07950548082590103 0.0096405278891325 -0.023758525028824806 0.10535198450088501 0.07048597931861877 -0.13404221832752228 -0.08153150230646133 0.17249619960784912 -0.0071915690787136555 0.12118913233280182 -0.027681982144713402 -0.07856114208698273 0.017641911283135414 0.027027294039726257 -0.01528683491051197 0.019730016589164734 -0.08789924532175064 0.05016719177365303 -0.09736274182796478 -0.02940083108842373 -0.055642999708652496 -0.04265184327960014 0.08344285190105438 -0.05009351298213005 0.057866547256708145 -0.06346574425697327 0.19025036692619324 -0.022347375750541687 -0.05163270980119705 0.19330692291259766 -0.09153882414102554 0.06797347962856293 -0.037697743624448776 -0.04548361152410507 0.07758498936891556 0.02331412024796009 0.03378330543637276 -0.016816729679703712 0.008714044466614723 0.14325322210788727 0.13928869366645813 -0.003535243682563305 -0.05652260780334473 -0.0016518724150955677 -0.08695545047521591 0.02069651521742344 0.04958400875329971 -0.0017451795283704996 -0.10131829231977463 0.03999710455536842 0.11872041970491409 -0.054726846516132355 0.1727858930826187 -0.03733029216527939 -0.018274791538715363 0.11716032028198242 0.019880054518580437 0.1692497283220291 -0.08581233769655228 -0.0028250773902982473 0.045622751116752625 0.06647895276546478 -0.008855893276631832 -0.08714961260557175 -0.0596340112388134 0.007434327155351639 0.06788088381290436 -0.042707204818725586 0.037415191531181335 0.05518569052219391 0.0046548484824597836 0.2774185538291931 0.07544323056936264 0.022606324404478073 0.07366889715194702 0.04338274523615837 0.03314518555998802 0.0916019082069397 0.09983988106250763 0.08320339769124985 0.03954111784696579 -0.08913897722959518 0.13959111273288727 0.01969212479889393 0.03398999571800232 0.017590751871466637 0.013524583540856838 0.041022513061761856 0.028137896209955215 0.05853692814707756 0.030714305117726326 -0.1638183742761612 0.08663058280944824 -0.163992777466774 -0.10600726306438446 -0.05610858276486397 0.005760259926319122 0.0687180683016777 0.058335673063993454 -0.08138848096132278 -0.02612072415649891 0.09543373435735703 0.07310538738965988 0.07260346412658691 0.03550684079527855 0.018079211935400963 0.03337540477514267 0.06411264836788177 0.12182294577360153 -0.05668000131845474 -0.06457909196615219 0.1281573623418808 0.09111209213733673 0.11600085347890854 0.04957277700304985 -0.10238698124885559 -0.005053895525634289 0.05500714108347893 -0.07696348428726196 -0.08650768548250198 0.06600086390972137 -0.008180315606296062 0.11270059645175934 0.019136536866426468 0.06863537430763245 0.04976635426282883 0.040857233107089996 0.0017395770410075784 -0.009473936632275581 0.0031161296647042036 0.04309268295764923 -0.00035615518572740257 -0.09726333618164062 -0.024793338030576706 -0.03643076494336128 0.01462653186172247 0.0585956834256649 -0.04510966315865517 -0.029009738937020302 0.14654123783111572 0.07992008328437805 0.006453410256654024 0.04564187303185463 -0.04407023265957832 -0.03816454857587814 -0.024867592379450798 0.15805333852767944 -0.146081805229187 0.07083456218242645 0.07086889445781708 -0.07276438921689987 -0.08506793528795242 -0.0064172884449362755 -0.03911843150854111 0.04258396849036217 -0.0465446412563324 0.10107989609241486 -0.03099118545651436 0.03205198422074318 0.01667427085340023 -0.08158119767904282 -0.04276653379201889 -0.07471660524606705 -0.06507942825555801 -0.03004354238510132 -0.056671395897865295 -0.055050693452358246 0.03939327970147133 0.026923373341560364 -0.05671120062470436 -0.02636590413749218 -0.02290828712284565 -0.03136968985199928 -0.07923796772956848 0.0030646142549812794 -0.005403049290180206 0.03110717050731182 -0.02876867540180683 -0.0015011192299425602 -0.06771983951330185 -0.026349488645792007 0.039893146604299545 -0.07967855036258698 -0.09523206204175949 -0.01590520516037941 0.025904327630996704 0.06599314510822296 0.016425201669335365 -0.012064986862242222 -0.08294565230607986 -0.012554982677102089 -0.052251946181058884 -0.10107166320085526 0.03314216434955597 0.030576523393392563 -0.07432530075311661 0.05744354799389839 0.04566831886768341 0.0068902731873095036 -0.02724907360970974 -0.01844973675906658 -0.06052277982234955 -0.1188400611281395 -0.016835719347000122 -0.07914325594902039 0.06401630491018295 0.13070060312747955 -0.007342481520026922 0.050302255898714066 -0.019824855029582977 -0.02348577044904232 -0.06681758165359497 0.09519752115011215 -0.00483372388407588 -0.015296882949769497 0.0458812452852726 0.19153064489364624 -0.01616332307457924 -0.031867582350969315 -0.0557192787528038 0.016036538407206535 -0.09166871011257172 -0.11419140547513962 0.05571531504392624 -0.020709460601210594 -0.06054027006030083 0.07979272305965424 -0.01636340841650963 -0.06154393404722214 0.038640812039375305 0.010430100373923779 -0.0664442703127861 -0.03801076486706734 -0.05268990993499756 0.09303051978349686 -0.03667273372411728 -0.010496971197426319 -0.07249831408262253 -0.04749871790409088 0.11941211670637131 -0.09276856482028961 -0.026771623641252518 -0.05966333672404289 -0.057149410247802734 0.0769154354929924 0.011812160722911358 -0.03855940327048302 0.024079641327261925 0.07687271386384964 0.03296715021133423 0.11614197492599487 -0.017684489488601685 -0.0073928809724748135 -0.022860070690512657 -0.04729706794023514 -0.0321904681622982 0.06944476813077927 0.0030532674863934517 -0.01986655406653881 0.06518055498600006 0.06760135293006897 -0.044732775539159775 0.022097691893577576 -0.02221255749464035 -0.032542984932661057 -0.01778310164809227 0.016067158430814743 -0.04157858341932297 -0.04332295060157776 0.04086005315184593 0.012213597074151039 0.03301658481359482 0.009008899331092834 -0.04767961427569389 0.0503842830657959 -0.00481839757412672 0.0012037226697430015 -0.09038663655519485 0.032911088317632675 -0.1205882579088211 -0.033434074372053146 -0.05756645277142525 0.03435564786195755 -0.06635210663080215 0.02329236827790737 0.013895578682422638 0.03421446308493614 -0.011558239348232746 -0.04708791896700859 -0.024486297741532326 0.019347624853253365 -0.055656448006629944 0.035347480326890945 -0.07533328980207443 -0.019488973543047905 -0.029383137822151184 0.08294125646352768 -0.028144607320427895 -0.03209390863776207 -0.13098226487636566 -0.13798120617866516 0.0026957031805068254 -0.009768880903720856 -0.000550263503100723 -0.012387591414153576 -0.018612660467624664 -0.05477583780884743 -0.06473345309495926 0.0140417804941535 -0.03503241017460823 -0.059489406645298004 0.022542407736182213 -0.030975455418229103 0.08065327256917953 -0.029527844861149788 0.05094311386346817 0.04391901567578316 -0.06578205525875092 0.07696682959794998 -0.07248666137456894 -0.09381629526615143 -0.08635324239730835 -0.0117894122377038 -0.114562027156353 0.010026250034570694 -0.011394212953746319 -0.08623123914003372 0.21256379783153534 0.020832009613513947 -0.025584284216165543 0.14004693925380707 -0.08445911854505539 -0.026105880737304688 0.029676014557480812 0.07367393374443054 -0.0005250228568911552 0.0037428312934935093 0.04152526333928108 0.013110581785440445 -0.03323347866535187 -0.013756032101809978 -0.05218340829014778 -0.07073859125375748 -0.01995670609176159 -0.06210479512810707 0.07684599608182907 0.11585638672113419 -0.11589320003986359 -0.10758555680513382 -0.08061080425977707 -0.0799102932214737 -0.028502807021141052 -0.09364117681980133 -0.022238556295633316 0.016557741910219193 -0.011290534399449825 -0.06754495203495026 -0.13103680312633514 -0.06964156776666641 -0.0032311417162418365 -0.055517762899398804 0.009596477262675762 0.03151436895132065 -0.021730581298470497 -0.008596091531217098 -0.006506266538053751 0.012406240217387676 -0.010294024832546711 -0.0318482406437397 0.05444833263754845 -0.1636684387922287 -0.09031488746404648 0.023222537711262703 0.11341781914234161 -0.03476131707429886 -0.015206548385322094 -0.045243196189403534 -0.037005867809057236 -0.057000283151865005 0.06716125458478928 0.10221026837825775 -0.05436069518327713 -0.04565352573990822 0.014230036176741123 -0.12052541971206665 -0.08745316416025162 -0.05432742461562157 -0.08135587722063065 -0.053185828030109406 -0.02367733232676983 -0.020331673324108124 0.06901879608631134 -0.024833180010318756 0.0703170895576477 -0.059749409556388855 -0.036282576620578766 -0.0825018361210823 -0.03854919970035553 -0.01286615151911974 -0.041061509400606155 -0.052406542003154755 0.07023029029369354 -0.04029637947678566 -0.08972803503274918 -0.06364727020263672 -0.01568920910358429 -0.10753721743822098 -0.02433820068836212 -0.0767279714345932 0.007480899803340435 -0.013923279009759426 -0.06619207561016083 -0.027001459151506424 0.0532175712287426 0.07369215041399002 0.29110845923423767 0.06105075031518936 -0.12216631323099136 -0.2947498559951782 -0.11453341692686081 0.3060762286186218 -0.17127861082553864 -0.033447545021772385 0.2134518176317215 0.2034875452518463 -0.1741611659526825 -0.034211210906505585 -0.09260548651218414 -0.004240004345774651 0.22860777378082275 -0.026355311274528503 0.09796980768442154 0.04981812462210655 0.10196425765752792 0.22601135075092316 0.07546281069517136 -0.028448408469557762 0.2995450794696808 -0.05850142613053322 -0.029490968212485313 0.0435989610850811 0.06911540776491165 0.4010504484176636 -0.030672678723931313 -0.281625896692276 0.4044467806816101 0.30579516291618347 0.1683225929737091 0.22745299339294434 -0.03288900479674339 -0.027323435992002487 0.19268827140331268 0.116533562541008 -0.07344403117895126 -0.07219459861516953 0.18810084462165833 -0.14512698352336884 -0.0005043552373535931 0.13053864240646362 -0.13516592979431152 0.327222615480423 0.03790629282593727 0.4162365794181824 0.03112870268523693 0.013623164035379887 -0.06299763917922974 -0.06505727767944336 0.16164065897464752 0.4013004004955292 -0.11776989698410034 0.2789331376552582 -0.055235251784324646 0.08092055469751358 0.39960917830467224 0.4626697301864624 0.029236555099487305 0.02727017179131508 0.6384996771812439 -0.16353760659694672 0.26758497953414917 -0.025289997458457947 0.2724750339984894 0.3839227557182312 0.2260999232530594 0.227016881108284 0.06850660592317581 -0.028120649978518486 0.02045499160885811 0.3209945857524872 -0.026332305744290352 -0.01865045167505741 0.07533116638660431 0.021507667377591133 0.23632222414016724 0.08896244317293167 -0.008077115751802921 0.47840550541877747 -0.10772988200187683 0.05030401423573494 -0.2331078201532364 0.14367754757404327 -0.017967142164707184 0.12341007590293884 0.11631514132022858 0.3100931942462921 0.12877821922302246 0.2660267651081085 0.05112622678279877 -0.013908909633755684 -0.05195074528455734 0.02842932939529419 0.1878129094839096 0.09771639108657837 0.12538854777812958 -0.03708893060684204 -0.06380674242973328 0.2173614501953125 0.3519127070903778 -0.11830714344978333 0.058498889207839966 0.10494527220726013 0.36215469241142273 0.08441465348005295 -0.16736172139644623 0.005413347855210304 -0.011836078949272633 0.14256812632083893 -0.08682490885257721 0.053449634462594986 0.3505878150463104 0.25560566782951355 0.15680865943431854 -0.09116820245981216 0.4264630377292633 -0.01639729179441929 0.42774996161460876 0.08685522526502609 0.4326898753643036 0.0015493378741666675 -0.028840865939855576 0.13017742335796356 0.04071926325559616 0.10512014478445053 0.17796476185321808 -0.07370925694704056 0.12237666547298431 0.09370279312133789 0.18087169528007507 0.29048803448677063 0.0624314621090889 0.21476760506629944 0.5533438324928284 0.3273248076438904 0.4134523570537567 0.07777585834264755 0.024281095713377 0.07836916297674179 -0.042702049016952515 0.21670463681221008 0.09279599785804749 0.030923930928111076 0.33260270953178406 -0.01080556120723486 0.014189896173775196 0.23510010540485382 0.06297029554843903 -0.1366797387599945 0.27850741147994995 0.010571829043328762 0.2934662401676178 0.21239040791988373 -0.3413408696651459 0.2819325923919678 0.034938231110572815 -0.05515801161527634 0.09709854423999786 -0.1633550375699997 -0.02309364266693592 0.21892541646957397 -0.09484569728374481 0.0806967094540596 0.3116582930088043 -0.16391722857952118 0.7121078372001648 0.4624883234500885 0.10000664740800858 0.406830757856369 0.35312435030937195 -0.03870844095945358 -0.031139327213168144 0.21643058955669403 0.27635034918785095 0.09089920669794083 0.16307522356510162 0.44924190640449524 0.024809004738926888 0.29954105615615845 0.10174855589866638 0.23903454840183258 0.4381455183029175 0.16311226785182953 0.05118700489401817 0.5193257927894592 0.41071534156799316 -0.2085152417421341 0.2954939007759094 0.3579117953777313 -0.09922073036432266 -0.03117259405553341 -0.11653123795986176 0.3821004629135132 0.11805053055286407 0.08246751129627228 -0.052210502326488495 -0.01322899479418993 0.16623641550540924 0.053436409682035446 0.017661646008491516 0.5676594376564026 -0.038865815848112106 0.003196990815922618 -0.06858494132757187 -0.07671067863702774 -0.19325008988380432 0.33007124066352844 0.004212213214486837 0.08273899555206299 -0.004607957322150469 0.5293487310409546 0.047098223119974136 0.14631834626197815 -0.0614234060049057 0.08388324081897736 -0.08650875836610794 0.3443281054496765 -0.0005603423342108727 -0.09397328644990921 0.26816126704216003 0.03924255445599556 0.03856902942061424 0.28637009859085083 -0.16084323823451996 -0.059458181262016296 -0.07478127628564835 0.2598670721054077 0.257906049489975 -0.009281698614358902 -0.006653492338955402 0.5042847394943237 0.10202319175004959 -0.07706476747989655 -0.042373284697532654 0.061842627823352814 -0.08666860312223434 -0.002945837564766407 0.0006509110098704696 0.10492381453514099 0.4057229161262512 0.28691381216049194 -0.01547897420823574 0.27569833397865295 -0.08200167119503021 0.050436023622751236 -0.04350164160132408 -0.028719669207930565 0.14813388884067535 0.39425280690193176 -0.23683136701583862 -0.30343180894851685 0.0803765282034874 0.2380157709121704 -0.20935142040252686 0.049546919763088226 0.0035617367830127478 -0.11353815346956253 -0.03191076219081879 -0.10753533989191055 -0.010410672053694725 -0.08305445313453674 -0.020661093294620514 -0.17294281721115112 -0.07164446264505386 -0.13183875381946564 -0.0033032905776053667 0.4729127883911133 -0.12126079946756363 0.01687587983906269 -0.09351915121078491 -0.03630225360393524 0.2881115972995758 -0.12213248014450073 -0.13479459285736084 -0.10292688012123108 -0.18310396373271942 -0.07958726584911346 0.0637211948633194 0.035631172358989716 0.3902828097343445 -0.1890585869550705 0.018749184906482697 -0.06661200523376465 -0.1950799971818924 -0.06057073548436165 -0.34363189339637756 -0.1726817488670349 0.2427423894405365 -0.10034024715423584 -0.15564534068107605 0.12287887930870056 0.006242295727133751 -0.02975977584719658 -0.20258477330207825 -0.08032549172639847 0.03872619569301605 0.30067774653434753 -0.08089496940374374 -0.15776337683200836 -0.07627853006124496 -0.12704861164093018 -0.13906428217887878 -0.026311075314879417 -0.09442291408777237 0.013225638307631016 -0.04625939577817917 -0.12829674780368805 -0.049438364803791046 -0.14181989431381226 -0.10550256073474884 -0.06049373000860214 -0.003176051424816251 -0.2237321436405182 -0.040442343801259995 0.01796775683760643 -0.1413465440273285 0.005912429187446833 -0.13125252723693848 -0.1429443359375 0.3571399748325348 -0.08080679178237915 -0.2144446074962616 -0.08190875500440598 0.05098602548241615 -0.0218241885304451 -0.13109327852725983 -0.03203840181231499 -0.02401016093790531 -0.061440274119377136 -0.19762374460697174 -0.05122683569788933 -0.45814788341522217 0.2422531694173813 0.029801638796925545 -0.635897696018219 0.04544731602072716 -0.11908425390720367 0.36706575751304626 -0.30416885018348694 0.01579993963241577 0.25350603461265564 0.18363367021083832 -0.16151545941829681 0.27538231015205383 -0.13540352880954742 -0.07966804504394531 -0.02939070202410221 -0.11496104300022125 0.016859879717230797 -0.18896302580833435 -0.15171034634113312 -0.14382301270961761 0.019209176301956177 -0.11785668134689331 0.03792974725365639 -0.5602854490280151 -0.00410958519205451 0.031200088560581207 -0.020722130313515663 -0.04387732595205307 -0.0646364837884903 -0.04263370856642723 -0.19708149135112762 0.17124707996845245 0.19966192543506622 -0.07967603206634521 -0.09417837113142014 -0.16883864998817444 -0.22539851069450378 -0.26855799555778503 -0.03782103583216667 -0.08867154270410538 0.016156842932105064 -0.27716460824012756 -0.023512378334999084 -0.44198673963546753 -0.039599161595106125 -0.020525017753243446 0.3426130712032318 -0.1639414131641388 0.18913456797599792 -0.09068363904953003 -0.029079459607601166 -0.1916392296552658 -0.2075285166501999 -0.22300377488136292 -0.05916900187730789 -0.2311038225889206 -0.3258965015411377 -0.17965543270111084 -0.07343919575214386 -0.46139517426490784 0.31943807005882263 0.07252851128578186 -0.12571333348751068 -0.09527979791164398 0.2159721553325653 -0.07781520485877991 -0.08976446092128754 -0.09768559038639069 -0.08885283023118973 -0.06088046729564667 -0.19964493811130524 0.2162207067012787 0.001700322376564145 -0.2766965329647064 0.019254116341471672 -0.06627435982227325 -0.17819178104400635 0.012293918989598751 -0.15514704585075378 0.004545343108475208 -0.06174640357494354 0.29622671008110046 -0.12773822247982025 -0.0678844228386879 -0.0020267763175070286 -0.06537926942110062 -0.04212522879242897 -0.04280883073806763 -0.10825122147798538 0.048170529305934906 -0.07628084719181061 0.2747420370578766 -0.16262297332286835 -0.1789168119430542 -0.05931840091943741 -0.1684039980173111 -0.023037228733301163 -0.20669220387935638 -0.0385114848613739 -0.2470765858888626 -0.04174823686480522 -0.038318708539009094 -0.24376200139522552 0.27947962284088135 -0.08232079446315765 -0.1057220846414566 -0.2123299390077591 -0.04272417351603508 -0.36583903431892395 -0.6554778218269348 0.028949525207281113 -0.7150028944015503 -0.6009172201156616 -0.036933962255716324 -0.09008730202913284 -0.10355319827795029 -0.14573709666728973 0.203425332903862 -0.06735890358686447 -0.040470436215400696 -0.046833280473947525 -0.13092786073684692 -0.1331881880760193 -0.14536260068416595 -0.1893969029188156 -0.030753204599022865 0.22471167147159576 -0.16013522446155548 -0.11247853934764862 0.06457914412021637 -0.39128267765045166 -0.24216197431087494 -0.1760065108537674 -0.05036883056163788 -0.3402921259403229 0.030737757682800293 -0.21295671164989471 -0.04969972372055054 -0.01785210147500038 0.008067332208156586 -0.1875765025615692 -0.00408591004088521 -0.1638428419828415 -0.020867226645350456 -0.004622205626219511 0.09087934345006943 -0.15120624005794525 -0.11435913294553757 -0.060690369457006454 -0.08570287376642227 -0.16893035173416138 -0.10825120657682419 0.01078159362077713 -0.2242044359445572 -0.16025610268115997 -0.04658122733235359 -0.023770233616232872 -0.04197791591286659 -0.001035525812767446 0.010912609286606312 -0.03880195692181587 -0.02392103523015976 -0.11899977922439575 -0.07555563747882843 -0.16045206785202026 -0.004913939628750086 -0.06683918088674545 -0.06528301537036896 -0.07165729999542236 -0.03263526037335396 -0.04797390103340149 0.2851477861404419 -0.21042683720588684 -0.035381726920604706 0.3915836215019226 -0.03289441764354706 0.33139896392822266 -0.02234247699379921 -0.05001763626933098 -0.013109711930155754 -0.46221861243247986 -0.10663066059350967 -0.028654862195253372 -0.05748007819056511 -0.10567756742238998 -0.15682527422904968 -0.06406383961439133 -0.09776614606380463 -0.10942775011062622 -0.017236987128853798 0.21729722619056702 -0.06214660033583641 -0.2025785744190216 0.019992083311080933 -0.07458466291427612 -0.24796070158481598 0.03044883720576763 -0.15273289382457733 -0.062176454812288284 0.014234979636967182 1.8167907910537906e-05 -0.05037828907370567 -0.05748169869184494 0.20953907072544098 -0.11136069148778915 -0.08300530910491943 -0.2584179937839508 0.06353697180747986 0.17545318603515625 -0.1278071403503418 0.0680510476231575 0.4145602285861969 -0.14421887695789337 0.028352800756692886 -0.21672868728637695 -0.025332923978567123 -0.0030566020868718624 0.2643144726753235 -0.3671470582485199 0.0031628466676920652 -0.02755279280245304 -0.1290387064218521 -0.04960249736905098 -0.0756148174405098 -0.07275930792093277 -0.19835777580738068 -0.34251493215560913 -0.04217715188860893 -0.031045766547322273 -0.28192415833473206 -0.011563420295715332 -0.0890083909034729 -0.01062780525535345 -0.2178543359041214 -0.22301606833934784 0.1240786612033844 0.18346422910690308 -0.04947855696082115 -0.017245177179574966 0.06260965019464493 -0.13084419071674347 -0.04840405285358429 0.07008623331785202 0.12834201753139496 -0.07755624502897263 -0.018648164346814156 -0.08887343108654022 -0.15217679738998413 0.026037398725748062 -0.2137533277273178 0.015582388266921043 0.012290454469621181 -0.04566407948732376 0.3999406397342682 0.04441652074456215 -0.043245829641819 0.3997587263584137 -0.2830606698989868 0.005806733388453722 0.009714162908494473 -0.07765290886163712 -0.2907315790653229 0.023884113878011703 -0.08483431488275528 0.18467214703559875 -0.06039200723171234 -0.1183018907904625 -0.8940442800521851 -0.047918543219566345 0.010419446974992752 -0.04358961060643196 -0.2994289696216583 -0.16533596813678741 0.08692095428705215 -0.17929324507713318 -0.23374369740486145 -0.07660872489213943 0.05377177894115448 -0.02853166125714779 0.008348959498107433 -0.14566780626773834 -0.15017618238925934 -0.23220130801200867 0.021738460287451744 -0.2688911259174347 0.05415524169802666 -0.3366621136665344 -0.8409680128097534 0.2544102966785431 -0.12991201877593994 -0.25236979126930237 0.07564757764339447 -0.05649134889245033 0.14937171339988708 -0.06691070646047592 0.0032106225844472647 -0.15292949974536896 -0.06973803043365479 -0.08947883546352386 0.0799456536769867 -0.12820710241794586 -0.09267172962427139 0.19344356656074524 -0.09939106553792953 0.2740381360054016 -0.051675792783498764 0.00263241701759398 0.02150132693350315 0.13104499876499176 -0.03375212848186493 0.007332270033657551 0.06770595908164978 0.061103131622076035 0.09604226797819138 0.011373437009751797 0.09785803407430649 0.24023482203483582 -0.07731477171182632 -0.0827481597661972 -0.08941741287708282 0.14091543853282928 -0.04912617430090904 -0.03061866946518421 0.0981685072183609 -0.17037704586982727 -0.2947538197040558 -0.08315519988536835 0.10836143046617508 -0.06443168967962265 -0.0060372729785740376 -0.007050854153931141 -0.09413442760705948 -0.2096862643957138 -0.15880078077316284 0.12129206955432892 -0.07516179233789444 -0.03106551244854927 0.23091751337051392 -0.109496109187603 -0.11530739814043045 -0.14403460919857025 -0.0837787613272667 -0.1194319874048233 -0.0950232520699501 -0.2607458829879761 -0.008739817887544632 0.018029581755399704 -0.013703190721571445 -6.0379567003110424e-05 0.045698486268520355 0.019983405247330666 -0.07379643619060516 -0.24666334688663483 -0.028364231809973717 -0.13463979959487915 0.22240112721920013 0.08240430802106857 0.01386884693056345 0.10078790783882141 0.20820431411266327 -0.10908535867929459 0.05416051298379898 -0.11501746624708176 -0.011738121509552002 -0.041842035949230194 -0.035929273813962936 -0.20136357843875885 -0.12162499874830246 0.058992527425289154 0.07198160886764526 -0.2521396279335022 -0.07452565431594849 0.06346125900745392 0.12129635363817215 -0.18702639639377594 -0.006325541529804468 -0.2321658432483673 -0.18882958590984344 -0.3275374472141266 -0.10817528516054153 -0.011189746670424938 -0.08838413655757904 0.17630724608898163 -0.38331812620162964 -0.09032783657312393 -0.3255985379219055 0.0025604479014873505 -0.236546590924263 -0.24911169707775116 0.06166929379105568 -0.05716344714164734 -0.26477113366127014 -0.5478966236114502 -0.12336087226867676 -0.3818757236003876 0.029092656448483467 -0.019487878307700157 0.024505360051989555 -0.0068288990296423435 0.11926202476024628 0.007135126274079084 -0.10098700225353241 0.0071243601851165295 -0.18295633792877197 0.019253773614764214 -0.06023947149515152 0.04881548136472702 -0.06402868032455444 0.00811102893203497 -0.11113044619560242 -0.0022484513465315104 -0.23509153723716736 -0.15186592936515808 -0.10908713936805725 -0.1368492990732193 -0.12707875669002533 -0.06442280858755112 -0.08003851026296616 -0.15382428467273712 0.17335031926631927 -0.0686919242143631 -0.0443587601184845 -0.08529787510633469 -0.025990882888436317 0.036011938005685806 -4.988115688320249e-05 -0.010863177478313446 0.08498632907867432 0.05608789250254631 -0.2928798794746399 -0.30400753021240234 -0.2102576047182083 -0.09057160466909409 0.08018867671489716 0.018360590562224388 -0.02504766173660755 -0.00788109190762043 -0.06402167677879333 -0.05495736375451088 -0.06022734194993973 0.02942637912929058 -0.012862935662269592 0.05584323778748512 0.03661670908331871 0.14918771386146545 -0.005800157319754362 -0.05265043303370476 0.009038357995450497 -0.14826452732086182 -0.010343515314161777 -0.004299026448279619 0.05945906788110733 -0.03619111701846123 -0.09498921036720276 0.08823707699775696 -0.06454924494028091 0.027727873995900154 -0.08118470758199692 -0.09063106030225754 0.024712765589356422 0.11009450256824493 -0.08250084519386292 -0.013781486079096794 0.03869468718767166 -0.05609634518623352 -0.08970924466848373 -0.16692447662353516 0.049630992114543915 -0.02763497084379196 -0.02280387282371521 0.05088290572166443 -0.061920080333948135 -0.1139705553650856 0.02407379262149334 -0.0013231764314696193 0.010853194631636143 -0.027200287207961082 -0.024714045226573944 -0.04929439723491669 0.16031678020954132 0.0225653238594532 -0.058303654193878174 0.0700056254863739 -0.016369519755244255 -0.04783673956990242 -0.007690227124840021 0.0946505144238472 -0.16737622022628784 -0.004185889847576618 -0.04545571282505989 0.17599040269851685 -0.006310576573014259 -0.035307176411151886 -0.04861145094037056 0.021011795848608017 0.10771701484918594 -0.06945091485977173 0.007151349913328886 -0.12073075026273727 -0.03454766422510147 0.09477242082357407 -0.03590858355164528 0.013495908118784428 0.07506126910448074 0.00484761968255043 -0.018106242641806602 -0.08555012196302414 -0.09371341019868851 0.003917128313332796 0.010761421173810959 0.0555427148938179 -0.04595782235264778 -0.02277655526995659 0.0608157254755497 0.11951559036970139 0.07056880742311478 -0.052620407193899155 -0.05944740027189255 -0.008218481205403805 0.06513260304927826 -0.09445316344499588 0.03579603508114815 0.014830619096755981 -0.061537086963653564 0.09859730303287506 -0.024969374760985374 -0.00012205896200612187 0.08096614480018616 0.00982731580734253 -0.10169753432273865 0.09154252707958221 -0.04678698629140854 -0.023940611630678177 0.04228968545794487 0.06401778757572174 -0.0566958487033844 -0.03896881267428398 0.04676210880279541 0.011747804470360279 0.018261970952153206 0.01355850137770176 -0.07723876088857651 0.003213206073269248 0.025549352169036865 -0.030086899176239967 0.0899200588464737 -0.019201409071683884 0.02543487399816513 0.03234459459781647 -0.1058456152677536 0.04433427006006241 0.002519246656447649 -0.04107654467225075 -0.05271007493138313 0.027265502139925957 -0.021932201460003853 -0.05895329266786575 0.011307748965919018 -0.04770210385322571 0.019842706620693207 -0.05626057833433151 -0.0016658101230859756 0.03587787598371506 -0.02007901854813099 -0.01923695206642151 -0.022857073694467545 -0.019923361018300056 -0.06968767940998077 0.01570930704474449 -0.041549939662218094 -0.09809517860412598 -0.10106207430362701 0.012307175435125828 0.004563574679195881 -0.10720878094434738 -0.03611413389444351 -0.00850862730294466 -0.04769190773367882 -0.02550455555319786 0.008188770152628422 0.01737643964588642 0.007555115036666393 0.10888897627592087 -0.04267581179738045 -0.050858061760663986 -0.042835500091314316 -0.03151853755116463 0.13778983056545258 -0.10212990641593933 0.01633603125810623 0.02184460125863552 -0.1223536804318428 -0.03971712291240692 -0.0045732553116977215 0.007834665477275848 -0.021271755918860435 -0.035323020070791245 -0.11785566061735153 0.047777071595191956 -0.10931272059679031 -0.02385743521153927 0.149406298995018 -0.04102485999464989 -0.03546840324997902 0.01542885135859251 -0.15801222622394562 0.051382120698690414 -0.024917660281062126 0.0036463213618844748 -0.012380658648908138 0.004106106236577034 -0.037603959441185 0.07969523966312408 -0.09627275168895721 -0.010363359935581684 0.03181948512792587 -0.1491825133562088 -0.07695761322975159 0.05559360235929489 -0.039943158626556396 0.0054984851740300655 0.00684644840657711 0.0179313775151968 -0.04693979024887085 -0.0559280700981617 -0.013357272371649742 -0.019097378477454185 0.09715438634157181 -0.002212506951764226 0.015709014609456062 -0.009677897207438946 -0.038601573556661606 0.006693042814731598 0.13605046272277832 0.022794419899582863 -0.025401566177606583 0.08629001677036285 -0.00815021526068449 0.0476539209485054 -0.025320449844002724 -0.06419266015291214 0.14033526182174683 -0.01079574041068554 -0.1259210854768753 -0.11255524307489395 -0.009891483932733536 -0.00589615385979414 0.05593554675579071 0.07350965589284897 -0.03359915316104889 -0.0113935936242342 -0.027445202693343163 0.000973287969827652 0.02156669646501541 0.040021974593400955 0.07765865325927734 0.012736143544316292 -0.022962043061852455 -0.033554963767528534 -0.03444110229611397 0.019690589979290962 0.019805243238806725 -0.0152555201202631 -0.011730112135410309 0.043583452701568604 0.06394695490598679 -0.017249733209609985 -0.01224094070494175 -0.07927828282117844 0.0906350389122963 -0.012581686489284039 -0.04339522123336792 -0.052368372678756714 -0.061546243727207184 -0.03775181248784065 -0.15341073274612427 -0.10382208973169327 0.08739926666021347 -0.007566968910396099 -0.06900116801261902 -0.06872977316379547 0.021824972704052925 -0.09218540787696838 0.036576155573129654 -0.033803828060626984 -0.06746620684862137 -0.04398137703537941 0.2015395313501358 0.03216325119137764 0.12362869828939438 -0.06795094162225723 -0.0012132534757256508 -0.02826489508152008 -0.0809088870882988 0.11714062094688416 -0.021340012550354004 -0.04681206867098808 -0.05681191757321358 -0.02202150598168373 -0.06573996692895889 -0.12288156896829605 -0.07961484044790268 0.08176785707473755 0.07422416657209396 -0.11593218892812729 -0.007402475457638502 -0.03880370035767555 -0.03446679562330246 -0.04679261893033981 0.026259401813149452 0.05811324715614319 0.09255418181419373 -0.02694595791399479 -0.031668342649936676 0.004341509658843279 -0.04063241928815842 0.016971414908766747 -0.059340089559555054 -0.0107669522985816 -0.3720833659172058 -0.057476695626974106 0.03454229608178139 0.06336839497089386 0.009580027312040329 0.029399709776043892 0.03652998059988022 0.1316274106502533 -0.10626544058322906 -0.07717592269182205 0.06265435367822647 -0.06460227817296982 -0.03374966233968735 -0.015826165676116943 -0.021906644105911255 0.10283784568309784 0.07252001762390137 0.04256288707256317 -0.06512601673603058 0.04917297139763832 -0.06719314306974411 -0.14636293053627014 0.060098059475421906 -0.18513494729995728 -0.007269702386111021 0.06772799044847488 -0.08434494584798813 0.075400210916996 -0.05028857663273811 -0.0277267936617136 0.03644918277859688 -0.07689327746629715 -0.16312962770462036 0.028017504140734673 0.10259459912776947 0.05199269577860832 -0.0826776847243309 0.06686444580554962 0.01585983857512474 0.029428061097860336 0.0697764977812767 -0.02943834476172924 -0.002963699633255601 0.0394505113363266 -0.11073686927556992 -0.006497169379144907 -0.005585168022662401 -0.01923917606472969 0.053960926830768585 0.12096647918224335 0.04144169017672539 -0.22737732529640198 0.00020857868366874754 0.04226670786738396 0.10326400399208069 -0.15300966799259186 0.029321080073714256 -0.07103154808282852 0.013852227479219437 0.09531447291374207 0.016656115651130676 0.08948244899511337 -0.02703871764242649 -0.05016501620411873 -0.03611486032605171 0.03786235302686691 0.028113506734371185 -0.09275854378938675 -0.010401354171335697 -0.03520941734313965 0.019711807370185852 0.04590633511543274 -0.252040833234787 -0.05904184281826019 0.11561521887779236 0.0071336436085402966 0.045572489500045776 -0.07400036603212357 0.05096258595585823 -0.02950892224907875 0.04631827026605606 0.05238272249698639 0.029484309256076813 0.0033271487336605787 0.12915131449699402 0.04311022534966469 0.049869950860738754 -0.04692181199789047 0.084291473031044 -0.0800560861825943 -0.08728974312543869 -0.012420550920069218 -0.30624324083328247 -0.03347346931695938 0.13235202431678772 0.017207391560077667 0.012880032882094383 -0.08760099858045578 -0.051295895129442215 -0.00026348818209953606 0.020091114565730095 -0.07684782892465591 0.07960455119609833 -0.06945975869894028 -0.06717558205127716 -0.008414579555392265 0.014662444591522217 0.03904686123132706 -0.05752095580101013 -0.003189787035807967 0.02952185645699501 -0.04563562572002411 -0.05006902292370796 0.008860503323376179 -0.11949293315410614 -0.0712171420454979 0.045315418392419815 0.04138723015785217 -0.0138987572863698 0.16689282655715942 -0.01731075718998909 -0.05854365974664688 0.08500536531209946 -0.06502942740917206 0.03162604942917824 0.03324343264102936 -0.009203874506056309 -0.0738024190068245 -0.10549930483102798 0.025252554565668106 -0.11268875002861023 -0.04016429930925369 -0.0693720132112503 0.04423167556524277 -0.12725219130516052 -0.05789706110954285 0.00978616438806057 0.02418450638651848 0.04845970496535301 0.16495688259601593 0.006842736154794693 0.12742429971694946 0.12084048986434937 -0.08163084089756012 0.09411776065826416 0.05437597632408142 -0.09873258322477341 0.008043565787374973 -0.006005523260682821 0.004515195731073618 -0.029296625405550003 0.05303120240569115 0.053422749042510986 0.08767162263393402 -0.0037559978663921356 -0.13614289462566376 -0.025228353217244148 0.01427491009235382 -0.26171430945396423 -0.12363848835229874 -0.47568240761756897 -0.26634401082992554 -0.01543348003178835 0.012041770853102207 -0.050726987421512604 -0.11755833029747009 -0.05377927049994469 -0.012300562113523483 -0.012949815951287746 -0.12113147974014282 0.07726288586854935 -0.013810761272907257 0.057314183562994 -0.056335192173719406 -0.03601105138659477 -0.017405260354280472 -0.029709259048104286 -0.019268281757831573 -0.014780360274016857 0.1247732862830162 0.02638281136751175 0.013937478885054588 -0.015820598229765892 -0.1161862313747406 0.0016001760959625244 0.08888742327690125 -0.06354492902755737 0.08944787085056305 -0.022222859784960747 0.008974626660346985 -0.020530885085463524 -0.18997077643871307 0.029376817867159843 -0.0575692281126976 0.023620320484042168 -0.010381280444562435 -0.034634847193956375 0.09570658951997757 0.012329707853496075 -0.051188744604587555 0.010840178467333317 -0.08412475883960724 -0.19427520036697388 0.13083408772945404 0.050542283803224564 -0.02999379113316536 -0.03883865848183632 0.033872898668050766 -0.051921628415584564 -0.12343920767307281 0.008754703216254711 -0.04733646288514137 -0.10265176743268967 -0.07232273370027542 0.0067020379938185215 0.06828861683607101 -0.05179200693964958 0.038905069231987 -0.014233620837330818 -0.06642992794513702 0.1201641783118248 0.13978415727615356 -0.06283480674028397 0.12458137422800064 -0.06401661038398743 0.10557802021503448 -0.014829570427536964 -0.09655191004276276 -0.09529142081737518 0.11157450824975967 -0.1323862075805664 0.07150525599718094 0.013090011663734913 -0.027774712070822716 -0.11190818250179291 -0.13162484765052795 -0.15417777001857758 0.09186126291751862 -0.03350360319018364 0.14511890709400177 -0.11080458760261536 -0.19901424646377563 0.12843674421310425 0.021650196984410286 -0.035266581922769547 0.03394053876399994 -0.34602636098861694 -0.08221982419490814 -0.08235848695039749 -0.17152242362499237 -0.03919409215450287 -0.16318108141422272 -0.0088070472702384 -0.04606816917657852 -0.0837460607290268 -0.3313661813735962 0.039560213685035706 0.1792783886194229 -0.11481793224811554 0.05287797749042511 0.0007363487384282053 -0.24191176891326904 -0.010864254087209702 -0.09262421727180481 -0.04147513583302498 0.05861372500658035 0.2856053113937378 -0.09300901740789413 -0.017611034214496613 -0.025649914517998695 -0.3724540174007416 -0.03884616494178772 -0.05110211670398712 -0.12199044227600098 -0.07360965013504028 -0.04718169942498207 -0.1393572837114334 -0.05595386028289795 -0.30231404304504395 0.01276419311761856 -0.08716799318790436 0.08677615225315094 -0.07673361897468567 0.028080305084586143 -0.0688047930598259 0.0773295983672142 -0.0023124124854803085 -0.03127368539571762 0.016782836988568306 -0.10352925956249237 -0.0005968668847344816 -0.0580044686794281 0.03134502097964287 -0.0760202631354332 -0.04032514989376068 0.0013871932169422507 -0.15836060047149658 -0.025536121800541878 -0.09079161286354065 -0.04680199176073074 -0.008789998479187489 -0.059883423149585724 0.059903599321842194 -0.0498516671359539 -0.08575034141540527 0.11245349049568176 -0.05690288543701172 -0.0884614959359169 0.0032715185079723597 -0.007862919941544533 -0.0830453485250473 -0.048414576798677444 -0.06441297382116318 -0.020287318155169487 -0.05069107562303543 -0.19984734058380127 -0.04828186705708504 0.0036694954615086317 -0.025431470945477486 -0.0663771778345108 0.04674917086958885 -0.04414866492152214 0.14256012439727783 -0.0342630110681057 0.14971715211868286 0.1016460582613945 0.05013773590326309 -0.06761125475168228 -0.08307962864637375 -0.14554256200790405 -0.11018096655607224 -0.11681779474020004 -0.057764384895563126 0.16392818093299866 -0.061169907450675964 0.1108473613858223 0.043541472405195236 0.13413967192173004 -0.09870278835296631 0.07186321914196014 -0.0765925943851471 -0.04965474456548691 0.07644955813884735 -0.0445837639272213 -0.031237386167049408 -0.056653764098882675 0.05035936087369919 -0.021473027765750885 0.052815500646829605 -0.09034974873065948 -0.03872188925743103 0.1390368640422821 -0.01217681635171175 0.054632797837257385 0.25565728545188904 0.030360296368598938 0.16160693764686584 0.07542791962623596 -0.09431624412536621 -0.1085955873131752 0.06222115457057953 -0.06746914982795715 0.009210947901010513 0.07809507101774216 0.02087346464395523 -0.13638953864574432 -0.14171060919761658 0.08835598826408386 0.005042705684900284 0.05272117257118225 -0.12949703633785248 0.011042751371860504 -0.059549830853939056 -0.22957158088684082 -0.08348674327135086 -0.1141684278845787 0.05649317055940628 -0.21527694165706635 -0.09383947402238846 -0.012968399561941624 -0.0948469415307045 0.04711364582180977 -0.4341127872467041 -0.03738616406917572 -0.04168661683797836 0.037180595099925995 0.004699366632848978 -0.058519236743450165 0.03091740794479847 -0.10071419179439545 -0.21275271475315094 -0.04248591139912605 0.01567029394209385 -0.3403899073600769 -0.0208846777677536 0.12135060876607895 0.08604390174150467 -0.03193189576268196 0.026643039658665657 0.06380104273557663 -0.050262708216905594 -0.09052769839763641 -0.15793496370315552 0.1366254687309265 0.1878081113100052 0.03754473477602005 0.026460440829396248 -0.028152739629149437 0.24904893338680267 -0.056768469512462616 0.09027840942144394 0.27317625284194946 -0.03103906847536564 0.01708226092159748 -0.06122102215886116 -0.13284549117088318 -0.037122953683137894 -0.07941290736198425 0.016408955678343773 -0.013808824121952057 -0.07936540246009827 0.021586056798696518 -0.008569291792809963 -0.18563617765903473 -0.06424178183078766 -0.12058760225772858 0.019353389739990234 0.0613163560628891 -0.12799061834812164 0.06947363168001175 -0.022243089973926544 -0.030664261430501938 -0.04858478158712387 0.014374586753547192 -0.016713138669729233 -0.021068111062049866 -0.04810290038585663 0.23026928305625916 -0.0004770156810991466 0.05368775501847267 -0.03262518346309662 -0.10107263922691345 -0.04187890514731407 -0.04263369366526604 -0.060935813933610916 0.016071174293756485 -0.043395716696977615 0.018965909257531166 -0.07918069511651993 -0.009728774428367615 -0.09616134315729141 -0.14862164855003357 -0.1438034623861313 -0.09081556648015976 -0.11645813286304474 0.045660026371479034 -0.08976278454065323 -0.013087829574942589 0.0063101984560489655 -0.04220791906118393 -0.012770265340805054 -0.0677049309015274 0.01712464541196823 -0.1879931390285492 -0.21957707405090332 -0.10588529706001282 -0.07121659070253372 0.00757538853213191 0.023241257295012474 -0.021332336589694023 -0.011061226017773151 -0.0840315967798233 -0.04263883829116821 -0.08346427232027054 0.07294099032878876 -0.15679271519184113 0.002485897857695818 -0.029044460505247116 -0.2426387071609497 -0.6756286025047302 -0.10452201962471008 -0.05804838985204697 -0.007506486028432846 -0.0011922534322366118 0.014207988046109676 -0.02452806383371353 0.022922702133655548 0.04456932842731476 -0.0713491216301918 -0.014247563667595387 -0.032903704792261124 0.10267901420593262 -0.021845590323209763 -0.07363613694906235 -0.07369466125965118 0.015315674245357513 0.017793627455830574 -0.01052100956439972 -0.028174391016364098 -0.02789621613919735 -0.004823722410947084 0.020477047190070152 -0.011617287062108517 -0.023647166788578033 -0.055349402129650116 -0.1114489883184433 0.017418520525097847 -0.12478718906641006 0.06441452354192734 0.047214578837156296 -0.003734898753464222 0.12394395470619202 -0.010665511712431908 -0.1680319905281067 0.04117141664028168 -0.11664237082004547 0.05115455761551857 0.015783263370394707 -0.04339510202407837 0.06916287541389465 -0.08957469463348389 -0.11679614335298538 0.04653824493288994 -0.03866487368941307 -0.05183328688144684 0.05242427438497543 -0.023182496428489685 -0.05590987578034401 0.035848282277584076 0.01187873724848032 -0.008567520417273045 0.10624867677688599 -0.012569384649395943 -0.03323851898312569 0.09079807996749878 -0.0773840844631195 -0.0108979232609272 -0.044892389327287674 -0.11794745922088623 0.15320850908756256 -0.06581063568592072 -0.09531077742576599 0.03519918769598007 -0.039352621883153915 0.024627171456813812 -0.06386995315551758 0.0802667886018753 -0.07592445611953735 -0.15154865384101868 0.001770811970345676 -0.032403621822595596 -0.007947138510644436 0.012842221185564995 -0.09434417635202408 0.06228052079677582 -0.14093178510665894 0.030596964061260223 -0.05213385820388794 0.038708463311195374 0.03757394477725029 -0.02838744968175888 0.02896537259221077 0.16620482504367828 -0.03692098334431648 0.011219060979783535 0.033768780529499054 0.013835874386131763 -0.08533778041601181 -0.056605126708745956 0.042612649500370026 -0.03609777241945267 0.07850215584039688 -0.05054320767521858 0.1318926066160202 -0.03107914887368679 -0.12727732956409454 0.014680303633213043 -0.05256529897451401 0.05297307297587395 -0.02762918919324875 -0.038284968584775925 -0.08781890571117401 0.08371628075838089 0.05257825180888176 -0.0819273442029953 -0.09349118918180466 0.016872823238372803 -0.016469182446599007 -0.10001190751791 0.020693466067314148 0.04310568422079086 -0.06439059227705002 0.00877031683921814 -0.039754170924425125 0.009645187295973301 0.033368147909641266 0.08440136164426804 -0.05652577057480812 0.06042275205254555 -0.12239251285791397 0.06827879697084427 -0.09790869802236557 -0.08528156578540802 -0.089057557284832 -0.13824212551116943 -0.03533554822206497 -0.055807556957006454 0.08303556591272354 -0.004653983749449253 -0.007252675015479326 0.005238301586359739 0.03836863860487938 -0.013906531035900116 0.04471456632018089 -0.04137991741299629 -0.1365364044904709 -0.07108453661203384 -0.11973648518323898 -0.03451383858919144 -0.1408589631319046 -0.09449140727519989 -0.04175449162721634 -0.03597664833068848 -0.021144594997167587 0.01270141638815403 0.011798594146966934 -0.03151736035943031 -0.005331521388143301 -0.09644097089767456 0.009383496828377247 -0.043930716812610626 0.030698910355567932 -0.07904242724180222 -0.017766639590263367 0.011462929658591747 0.06962025910615921 0.08432894945144653 0.01400843821465969 0.008540990762412548 -0.015350362285971642 -0.09028403460979462 -0.06531303375959396 -0.020999815315008163 0.04520136117935181 -0.020342113450169563 0.1587507277727127 -0.028794264420866966 -0.034683287143707275 0.042151447385549545 0.019156571477651596 0.020427197217941284 -0.019803736358880997 0.08743356913328171 0.03581372648477554 0.048012811690568924 -0.03777105733752251 0.06273510307073593 0.006845362018793821 0.014897294342517853 0.06266111135482788 0.024089084938168526 -0.02877023071050644 -0.041335463523864746 -0.0332760289311409 -0.028705762699246407 0.03638198599219322 -0.13093328475952148 0.026332490146160126 0.009883497841656208 0.0002537812106311321 -0.08062362670898438 -0.06494691967964172 -0.10260110348463058 -0.041863638907670975 -0.06883428245782852 -0.08520856499671936 -0.08409251272678375 0.011572378687560558 -0.04983113706111908 0.029361549764871597 0.04459197819232941 -0.1483699232339859 0.08213139325380325 0.04473020136356354 -0.09068670868873596 -0.0575660839676857 -0.051420796662569046 0.015807248651981354 0.10800808668136597 -0.009316402487456799 -0.05548333004117012 -0.05123183876276016 0.013234782963991165 0.06919118016958237 -0.03372570872306824 0.004337854217737913 0.05285565182566643 -0.0679076686501503 -0.008585636503994465 0.07149388641119003 -0.06918226182460785 -0.030149580910801888 -0.05904660001397133 -0.04439350962638855 -0.10004054754972458 -0.03294883295893669 -0.10740145295858383 0.057609833776950836 0.003964915405958891 -0.05461100861430168 0.002775792498141527 -0.0686626061797142 -0.056719325482845306 0.02888086438179016 0.04726565256714821 0.0678643211722374 -0.07017743587493896 -0.03154982626438141 0.10744942724704742 -0.009798209182918072 -0.01739904284477234 -0.07329419255256653 -0.029969841241836548 0.04646718129515648 0.00955220591276884 -0.08050243556499481 -0.04267410933971405 -0.0029415725730359554 -0.09246622771024704 0.0952010229229927 0.039355576038360596 -0.013282382860779762 -0.059437889605760574 0.007628869730979204 -0.019529366865754128 -0.05231747031211853 0.11074525117874146 0.001276964321732521 0.05024804547429085 -0.007093959022313356 -0.10717903822660446 -0.027277372777462006 -0.05810660868883133 0.10534143447875977 0.07196305692195892 -0.03392326459288597 0.14193786680698395 -0.02420983649790287 0.012609714642167091 0.017319096252322197 -0.013666666112840176 -0.1148926392197609 -0.06945314258337021 -0.03708168491721153 -0.05222282186150551 -0.06762158870697021 -0.014265035279095173 0.1273471862077713 0.02179262973368168 -0.07578660547733307 -0.036705225706100464 -0.06936820596456528 -0.05716704577207565 -0.028295477852225304 -0.09092061221599579 -0.013781950809061527 0.04189065098762512 -0.13386674225330353 0.02399681694805622 -0.16520459949970245 -0.06256958842277527 0.06680185347795486 -0.026631826534867287 0.018751727417111397 -0.060263413935899734 0.004488034173846245 0.005980268586426973 -0.05195111408829689 0.007663076277822256 -0.07113916426897049 -0.13130556046962738 -0.03501841053366661 -0.037929363548755646 -0.013998995535075665 -0.026660896837711334 0.03590087220072746 -0.009443906135857105 -0.050713520497083664 -0.022958939895033836 -0.08374587446451187 -0.08808127790689468 0.14801530539989471 0.026129644364118576 0.07491905987262726 0.01009436883032322 0.05092551186680794 0.04222119599580765 0.002430433640256524 -0.014165111817419529 0.011023654602468014 -0.10018406063318253 -0.023647893220186234 0.05262096971273422 -0.19802209734916687 -0.14562270045280457 -0.007004179526120424 0.06438743323087692 -0.0506935641169548 0.09332917630672455 0.09998390078544617 -0.06679365038871765 -0.08197370171546936 0.009072228334844112 0.049100954085588455 -0.05523199588060379 -0.061694610863924026 0.07164662331342697 -0.015200125984847546 0.029090862721204758 -0.007082081399857998 -0.038478344678878784 0.14776171743869781 0.15189704298973083 0.04348786547780037 0.0009906115010380745 -0.028926460072398186 -0.03520549461245537 0.055691998451948166 -0.07662371546030045 -0.01189287006855011 -0.06925343722105026 -0.05735158175230026 -0.032257046550512314 -0.036430682986974716 -0.01821797899901867 0.03349069505929947 0.07829076051712036 -0.07833287119865417 -0.0010501093929633498 0.06342870742082596 0.10336624085903168 0.09598196297883987 -0.01658438704907894 0.03288666531443596 0.01925676129758358 0.13967789709568024 0.0016987178241834044 0.04584131017327309 0.09636104106903076 -0.013777856715023518 -0.0477437824010849 -0.0032806135714054108 0.10683603584766388 0.03555238991975784 -0.03488248586654663 0.01446343120187521 -0.007133495528250933 0.0767364427447319 -0.12936310470104218 -0.06568684428930283 -0.07973900437355042 -0.20233236253261566 -0.010394171811640263 -0.022114163264632225 0.08900769799947739 -0.06388119608163834 -0.10435469448566437 0.03515138104557991 -0.005635725799947977 -0.002263189060613513 -0.02533051185309887 0.1735491305589676 -0.02176928147673607 -0.003405152354389429 -0.007241368759423494 0.10370814055204391 0.049877721816301346 -0.07537759840488434 -0.005723761860281229 0.07019289582967758 -0.026025520637631416 0.04544958099722862 -0.08627462387084961 -0.0011638142168521881 0.09530478715896606 0.012936977669596672 -0.15286025404930115 -0.05210801586508751 -0.1025247797369957 -0.01664458028972149 0.06583521515130997 -0.026609836146235466 0.022457608953118324 0.021130934357643127 0.045071791857481 0.08073008805513382 -0.0020190852228552103 -0.05532635375857353 -0.005834522657096386 0.04416646435856819 -0.10842505097389221 -0.04657828435301781 0.018727127462625504 -0.06881280988454819 -0.013333452865481377 0.09911345690488815 -0.027726996690034866 0.027701156213879585 -0.04427089914679527 0.005702760070562363 0.12052717804908752 -0.01098925992846489 0.0616573803126812 -0.09417209029197693 -0.027847062796354294 0.04810638353228569 -0.05649761110544205 -0.018754158169031143 -0.025282394140958786 0.036963216960430145 -0.003763638436794281 0.02873203530907631 -0.052301324903964996 -0.0010535146575421095 -0.023468006402254105 -0.03341678902506828 -0.06294722855091095 -0.0915691927075386 -0.054233573377132416 0.0874953493475914 -0.0323793850839138 -0.00932056363672018 0.0626445785164833 0.0726647898554802 -0.013999476097524166 0.07176457345485687 -0.012277345173060894 0.032085273414850235 0.10490235686302185 -0.07549479603767395 0.02181766927242279 0.029973091557621956 -0.011030180379748344 0.052612677216529846 -0.05424803867936134 0.062300316989421844 0.054490748792886734 0.08124620467424393 0.09437692165374756 -0.06854811310768127 -0.001895354362204671 -0.09471683204174042 0.04408502206206322 -0.0329841710627079 0.031117741018533707 -0.07867762446403503 -0.08630313724279404 0.09110981225967407 -0.03635763004422188 -0.024114616215229034 0.04714807868003845 -0.12886202335357666 -0.04056850075721741 0.04350661113858223 -0.016151947900652885 -0.0011798552004620433 -0.0031285907607525587 0.060590747743844986 -0.0422753281891346 -0.024729320779442787 -0.024532034993171692 0.04116697236895561 -0.053070541471242905 0.030356870964169502 -0.01657234877347946 0.03762301802635193 -0.059479113668203354 -0.11781469732522964 -0.04970628395676613 -0.03319091349840164 -0.016157522797584534 0.08185268938541412 -0.012344502843916416 -0.07483141124248505 0.05652318149805069 -0.07103510946035385 -0.00935495924204588 0.004598512779921293 -0.00692071532830596 0.16736240684986115 0.015792619436979294 0.08912073820829391 -0.06463319063186646 -0.191384419798851 -0.1254424750804901 -0.044770386070013046 -0.0592733658850193 -0.23061545193195343 0.14430858194828033 -0.07627222687005997 -0.08054661750793457 -0.024939274415373802 -0.0494808591902256 -0.10939638316631317 0.018000369891524315 0.05850649252533913 -0.030290471389889717 -0.16243495047092438 -0.03438866510987282 0.013342268764972687 -0.24628227949142456 -0.11155053228139877 -0.3156315088272095 -0.027602097019553185 -0.17151577770709991 0.010334642603993416 0.0844128280878067 -0.04270913451910019 -0.06657800078392029 -0.014438983052968979 -0.32846519351005554 -0.11337299644947052 -0.08966373652219772 0.019149435684084892 -0.06457003951072693 0.11730276793241501 -0.10284647345542908 0.01914411410689354 0.03641195222735405 0.020582567900419235 0.08044533431529999 -0.17360776662826538 -0.1307571530342102 -0.0317644365131855 -0.03975583240389824 -0.27728477120399475 -0.0716918408870697 -0.08550398051738739 -0.13009628653526306 -0.0010880682384595275 -0.10287570208311081 0.012874401174485683 -0.35386401414871216 -0.16304685175418854 0.020274370908737183 -0.009572173468768597 -0.20671126246452332 -0.0270181093364954 0.0804380550980568 0.061954304575920105 0.016634803265333176 0.030239691957831383 0.0032592862844467163 0.08912920206785202 -0.06695003062486649 -0.08808980882167816 0.05057854950428009 0.027170730754733086 0.007878662087023258 0.07261084765195847 0.12750165164470673 -0.1657153218984604 -0.006731173489242792 -0.005341846961528063 -0.20913182199001312 -0.06317734718322754 -0.17857281863689423 0.03242222219705582 -0.08322848379611969 -0.03931949660181999 -0.20753124356269836 -0.03622403368353844 -0.07034172862768173 0.10526824742555618 -0.037064891308546066 -0.021811744198203087 0.06720630824565887 -0.037366706877946854 0.21450458467006683 -0.09186704456806183 -0.005395248997956514 0.2967248558998108 -0.07252536714076996 -0.06355128437280655 -0.18760807812213898 -0.14562319219112396 -0.0211960356682539 -0.1069817915558815 -0.10257001966238022 -0.060185715556144714 -0.10371194034814835 -0.06652337312698364 -0.07231467217206955 0.0135981859639287 0.10476703941822052 -0.005895658396184444 0.05783449858427048 -0.04955931007862091 0.056146543473005295 0.06921179592609406 -0.02032829076051712 0.2515096366405487 0.06263681501150131 -0.22138862311840057 0.03638334944844246 0.22889971733093262 -0.06105761229991913 -0.1402129977941513 0.044271208345890045 0.01324259303510189 -0.19761306047439575 -0.06878788024187088 -0.009987800382077694 -0.04845482110977173 -0.08997484296560287 -0.06226144731044769 0.05981934815645218 -0.08000870048999786 -0.05962051451206207 -0.02042398415505886 -0.07296551018953323 -0.08190368115901947 0.33588406443595886 -0.06144639477133751 0.557730495929718 -0.07345451414585114 -0.01718943379819393 -0.00263390620239079 0.14989984035491943 -0.04196719825267792 0.04694081097841263 -0.024860193952918053 -0.01610272191464901 -0.13386453688144684 0.03389792889356613 -0.008295876905322075 -0.11596448719501495 0.06823322176933289 -0.048536498099565506 -0.06453924626111984 0.100435271859169 -0.019332056865096092 -0.3888579308986664 -0.15955804288387299 -0.22944673895835876 -0.08311422914266586 0.01087282132357359 -0.09696798026561737 -0.05753781646490097 0.4987596571445465 -0.012654043734073639 0.09105753898620605 -0.04500551521778107 0.02107485756278038 -0.05398058891296387 -0.04969615116715431 -0.029562586918473244 -0.06326229125261307 -0.03681792691349983 -0.023242425173521042 0.0012139944592490792 -0.04900813847780228 -0.015586968511343002 -0.004735036753118038 -0.08168527483940125 0.0728832483291626 0.008968234062194824 0.009435703977942467 -0.03954742103815079 0.03369172662496567 -0.12537598609924316 -0.21968789398670197 -0.07153230160474777 0.022340433672070503 -0.03235960751771927 -0.02334418147802353 0.08205535262823105 -0.05753926932811737 -0.0008721452322788537 0.18978454172611237 -0.0589090995490551 0.03226814419031143 -0.09360690414905548 -0.07000188529491425 -0.06934607774019241 -0.05229329317808151 -0.025323757901787758 0.03089703619480133 0.012909118086099625 -0.060289476066827774 0.1923418790102005 -0.30207303166389465 0.05310174450278282 0.08020564913749695 0.07024452090263367 -0.23328599333763123 -0.023346787318587303 0.0461818166077137 -0.06895986199378967 0.05922252684831619 -0.22833611071109772 -0.03579699620604515 -0.29863134026527405 -0.06303377449512482 -0.17418818175792694 -0.24074327945709229 0.024344630539417267 0.0446910560131073 -0.041173066943883896 0.09898757934570312 -0.056877318769693375 -0.1420137882232666 0.02932877279818058 0.03274685889482498 -0.06108764186501503 -0.1343880444765091 -0.04827975854277611 -0.030762339010834694 -0.04458949342370033 -0.04328222572803497 -0.08259230107069016 -0.07992815971374512 -0.10233023762702942 0.027622800320386887 -0.0865049734711647 0.04717867821455002 -0.0346248522400856 -0.08832992613315582 -0.37466827034950256 -0.11546209454536438 -0.051625944674015045 -0.1626695692539215 -0.03591429442167282 -0.0045070042833685875 -0.09803355485200882 0.05573543161153793 0.06354399025440216 -0.004686209373176098 -0.004979209508746862 -0.10191012173891068 0.010387901216745377 -0.048149581998586655 -0.009111753664910793 -0.06875979155302048 -0.0953691303730011 -0.019032884389162064 -0.1734766811132431 0.0811554566025734 -0.12605178356170654 0.002151844557374716 -0.14824265241622925 -0.04048510268330574 -0.13825491070747375 -0.10167810320854187 -0.006104135420173407 -0.1570405513048172 -0.04972868785262108 -0.07584463059902191 0.003378058085218072 0.1324453204870224 -0.08717723190784454 -0.06304518133401871 0.015520988963544369 0.07164736092090607 0.11726445704698563 -0.09531070291996002 -0.011570039205253124 -0.04603288322687149 -0.026810111477971077 0.06920376420021057 0.0007287160260602832 -0.048362258821725845 -0.0440497063100338 0.007556104101240635 0.07264011353254318 -0.12616829574108124 -0.0030448269098997116 0.07778707146644592 -0.06882158666849136 -0.02776038832962513 -0.17295998334884644 0.0027702427469193935 -0.007142148911952972 0.017129773274064064 -0.07062967121601105 -0.12114349007606506 -0.09061193466186523 0.12606167793273926 -0.057521846145391464 -0.015332981012761593 -0.03491734713315964 -0.02804955281317234 -0.11540254205465317 0.0001380327739752829 -0.05999134108424187 0.004906476940959692 -0.0649438202381134 -0.12810364365577698 -0.1180649995803833 0.09909945726394653 -0.027890609577298164 -0.059515826404094696 -0.02650262974202633 -0.07477662712335587 -0.09802184998989105 -0.03443584218621254 -0.13738961517810822 0.13806693255901337 -0.20239023864269257 0.033120036125183105 -0.08388926088809967 -0.08298290520906448 -0.14361794292926788 -0.12266144901514053 0.06322883814573288 -0.046838417649269104 -0.03399990499019623 0.05031105503439903 0.021977122873067856 0.16302074491977692 0.04416979104280472 -0.040168724954128265 -0.14583830535411835 0.01877966895699501 -0.11379390209913254 -0.032622408121824265 -0.1554620862007141 -0.01696801744401455 -0.06911566853523254 -0.10114806890487671 0.07908912003040314 -0.28192853927612305 -0.13077296316623688 0.0817987471818924 0.0642293393611908 -0.12900950014591217 -0.055253852158784866 0.014514493755996227 -0.048226382583379745 0.014764725230634212 0.023504190146923065 -0.05835062265396118 -0.09364292770624161 -0.10646411776542664 -0.0680021345615387 -0.04603268578648567 -0.09570805728435516 -0.10641202330589294 0.014881337061524391 -0.05998056009411812 0.009111996740102768 0.11540120840072632 -0.33306220173835754 -0.0960826501250267 0.05108238011598587 -0.10569760203361511 0.02681656926870346 -0.026868553832173347 -0.08200185000896454 -0.08926627039909363 -0.04941439628601074 0.008468332700431347 -0.012757048942148685 0.038400400429964066 -0.07508427649736404 -0.014028910547494888 -0.0020306508522480726 0.05445048585534096 0.20149333775043488 -0.02435946650803089 -0.04524718597531319 -0.05673081427812576 -0.09889361262321472 -0.14374271035194397 -0.054459940642118454 0.13817603886127472 -0.09286335110664368 0.06507159024477005 -0.06703842431306839 0.12884487211704254 0.011599477380514145 -0.07521325349807739 -0.07508808374404907 0.017277320846915245 -0.026782739907503128 -0.0021069771610200405 -0.04999743029475212 -0.016773538663983345 -0.07690222561359406 0.04023761674761772 -0.011302824132144451 -0.004625695291906595 -0.028453819453716278 0.0026634742971509695 -0.03257850557565689 -0.09009187668561935 0.05557898432016373 -0.0291836429387331 0.003787297522649169 0.11670888960361481 0.04877176135778427 -0.049868687987327576 0.05499250814318657 -0.018019281327724457 0.09827281534671783 -0.09094110131263733 -0.03471236675977707 -0.15210066735744476 -0.04007203131914139 -0.02723626047372818 -0.027958296239376068 -0.06308319419622421 -0.03776247054338455 0.10056701302528381 -0.07961481064558029 -0.03612566366791725 0.04685337468981743 -0.1303030103445053 -0.1145537719130516 0.01695161499083042 -0.03999057784676552 -0.04157685115933418 -0.07211486250162125 -0.1359132081270218 -0.0782950222492218 -0.14562436938285828 -0.060430631041526794 -0.01491487119346857 0.01063595712184906 -0.040944937616586685 0.03712422773241997 -0.0930306613445282 -0.051193881779909134 0.19470034539699554 -0.04121725261211395 -0.11554316431283951 -0.05660051479935646 -0.09842310100793839 -0.30902987718582153 0.001916785491630435 -0.26580938696861267 -0.18588219583034515 -0.05572914332151413 -0.15137717127799988 -0.0006655036704614758 -0.05138454586267471 0.06753607839345932 0.0069906325079500675 -0.04142282158136368 -0.08766726404428482 0.0842469334602356 -0.0567442886531353 -0.15271034836769104 -0.18359339237213135 -0.020117659121751785 -0.02876417338848114 -0.08061639219522476 0.0029433579184114933 -0.1520582139492035 0.035654567182064056 -0.05950283631682396 -0.10531283915042877 0.028888946399092674 -0.08364526182413101 0.08256139606237411 0.013754681684076786 -0.06415855139493942 0.15722054243087769 -0.06180332601070404 0.11664296686649323 -0.09157664328813553 -0.04183979704976082 -0.10283435136079788 -0.033211849629879 -0.09310892969369888 0.18189476430416107 -0.21153013408184052 -0.03651494160294533 0.0009453149978071451 -0.22701731324195862 0.0025998386554419994 -0.12849798798561096 -0.0977916568517685 0.03810691088438034 -0.007951237261295319 -0.036380380392074585 0.02001882903277874 -0.06402221322059631 -0.19656752049922943 -0.06228227540850639 -0.02066551148891449 -0.09112035483121872 -0.20848947763442993 -0.04580168426036835 -0.0387221984565258 -0.06004885584115982 -0.07918418943881989 0.061181217432022095 -0.041883666068315506 -0.08160705119371414 -0.032380469143390656 -0.035558685660362244 0.0322134830057621 0.0878097340464592 0.061509523540735245 0.10455303639173508 -0.024135638028383255 -0.016060201451182365 -0.05048537254333496 0.05748365819454193 0.049298644065856934 -0.06445251405239105 0.034752968698740005 -0.07432711124420166 -0.04806124418973923 0.04727807268500328 0.07354515045881271 -0.007061563897877932 -0.04662329703569412 -0.07911615818738937 -0.0006577931926585734 -0.08612468093633652 0.09110485762357712 -0.08165968954563141 -0.04125971719622612 -0.10469169169664383 0.0085748340934515 0.023682933300733566 0.03985628858208656 0.07221062481403351 0.029488634318113327 -0.05003880336880684 0.005385748576372862 0.0015900091966614127 -0.023289058357477188 0.02293710969388485 0.07600466907024384 -0.1236616000533104 -0.008252610452473164 -0.02234131470322609 0.025331877171993256 0.05994743853807449 -0.03720172122120857 0.0748455598950386 -0.05228837579488754 0.0077871172688901424 0.08843711763620377 0.027880938723683357 -0.007680862210690975 0.0035706209018826485 -0.027452969923615456 0.05063185840845108 0.06412743777036667 0.09368817508220673 0.10178779810667038 0.0434657447040081 -0.0052461470477283 0.0006123801576904953 -0.015137430280447006 0.023639632388949394 -0.040573425590991974 0.05705692619085312 -0.002072604838758707 0.053815361112356186 0.015453697182238102 -0.013276807963848114 -0.12358060479164124 0.08938118070363998 0.12021239101886749 -0.07971829175949097 0.027078742161393166 0.03683525696396828 0.0011804508976638317 -0.01699506863951683 -0.03502321243286133 -0.10746031254529953 -0.03605472669005394 -0.01205508690327406 -0.007665649987757206 -0.06667172163724899 -0.09058517962694168 -0.05608730763196945 0.0012150428956374526 -0.00806137453764677 -0.01747133582830429 0.01754787564277649 -0.09023495018482208 -0.04250781983137131 0.055175650864839554 0.0007967124693095684 0.030596919357776642 -0.010779247619211674 0.056623563170433044 0.06403523683547974 0.03408437967300415 0.020973674952983856 -0.025222405791282654 0.012505789287388325 -0.054708510637283325 -0.03571631386876106 0.030144397169351578 0.0025078807957470417 -0.08660408109426498 0.1869710385799408 0.07089245319366455 -0.11051370203495026 0.05461287498474121 0.08618596196174622 -0.07292294502258301 0.009898404590785503 -0.12028929591178894 -0.07428748905658722 -0.022196399047970772 -0.03588980436325073 0.0352824442088604 -0.12744779884815216 0.015965983271598816 0.025802934542298317 -0.009071397595107555 -0.023031381890177727 -0.059327371418476105 0.0612354651093483 -0.005888892337679863 -0.06590702384710312 -0.008302649483084679 -0.006410016678273678 0.05542628839612007 -0.05263448879122734 0.030072426423430443 -0.028634853661060333 -0.04250819608569145 -0.044013477861881256 -0.08518672734498978 0.0181974358856678 -0.0376376211643219 -0.07204258441925049 0.016847338527441025 -0.012384487316012383 0.04884772002696991 -0.020965877920389175 -0.005738378502428532 -0.04152780771255493 -0.021008074283599854 -0.09695404767990112 0.13130348920822144 0.028915563598275185 0.02564445324242115 -0.027682840824127197 -0.06634040921926498 0.13773752748966217 0.0011681820033118129 -0.039095696061849594 -0.07370488345623016 -0.052402231842279434 -0.004644047003239393 -0.04057392105460167 -0.020462296903133392 -0.09073082357645035 -0.055382952094078064 -0.0721118152141571 0.008260350674390793 -0.009892446920275688 -0.05286438390612602 0.04702800512313843 0.010669013485312462 -0.01247334387153387 0.03574744239449501 -0.06939853727817535 -0.0778687447309494 0.021020300686359406 0.005666153505444527 -0.04148248955607414 0.017243634909391403 0.01699633151292801 0.07893352955579758 -0.003172005759552121 0.0011884520063176751 0.04466401785612106 -0.03295973315834999 -0.015326346270740032 0.09992234408855438 -0.06822378933429718 0.02837095968425274 0.035430822521448135 -0.03940971568226814 0.05520491302013397 -0.03750809282064438 -0.03979694843292236 0.018431033939123154 -0.10432078689336777 0.008958323858678341 0.06079408898949623 -0.02283990941941738 0.018919402733445168 -0.18648597598075867 -0.047793079167604446 -0.06217016652226448 0.08671174198389053 -0.06401749700307846 -0.07724098116159439 0.05453404784202576 0.07224822789430618 -0.01055264100432396 0.03621223196387291 0.03482772037386894 -0.03606431558728218 0.007455440238118172 -0.06318826228380203 0.03039512224495411 0.04161877557635307 0.011966944672167301 -0.0006452119559980929 -0.021771861240267754 -0.02924516052007675 -0.009191736578941345 -0.006872628815472126 -0.07922045141458511 -0.00047606261796317995 0.055922795087099075 0.10725779086351395 -0.016247263178229332 0.07702676951885223 -0.09306973218917847 -0.06985469162464142 0.06846050173044205 0.015480379574000835 0.024792838841676712 0.09707371145486832 0.009543647058308125 -0.01792905107140541 -0.004459995776414871 0.05254938825964928 -0.011230038478970528 -0.07045036554336548 -0.02944904938340187 -0.025282464921474457 -0.058039966970682144 0.0640433058142662 0.0074058412574231625 0.01214808039367199 -0.02390640415251255 -0.02801636978983879 0.03434006869792938 -0.05204727500677109 -0.018809590488672256 -0.05890344828367233 0.00924390647560358 -0.08494154363870621 0.04702790454030037 -0.009590019471943378 -0.056684523820877075 -0.12198914587497711 0.061895642429590225 -0.029173096641898155 0.00428719213232398 -0.08539000898599625 0.020779795944690704 -0.00467167142778635 0.04466181620955467 -0.10459389537572861 -0.025251567363739014 -0.0059588756412267685 0.041801419109106064 0.0334501713514328 -0.03393404930830002 0.014410488307476044 -0.06910154968500137 0.013980893418192863 0.039028700441122055 -0.00027160297031514347 -0.0947570875287056 -0.021297629922628403 -0.03479687497019768 -0.022838255390524864 0.01578640751540661 -0.055396854877471924 -0.03475828841328621 -0.03166692703962326 -0.01567515730857849 -0.06318856030702591 -0.018780410289764404 -0.0004347904468886554 -0.015440165065228939 -0.055508654564619064 0.02820347063243389 -0.008913083001971245 -0.055897075682878494 -0.08052727580070496 0.04992545768618584 -0.010940189473330975 0.023753192275762558 0.07279758155345917 -0.12608017027378082 0.05279183387756348 -0.009665385819971561 -0.002176669891923666 -0.03650250285863876 0.0049803112633526325 0.03345435485243797 0.02415309101343155 -0.03836613520979881 0.017428910359740257 0.04877360910177231 -0.04090815782546997 -0.002482198178768158 -0.024344712495803833 -0.07827002555131912 -0.1091562882065773 -0.033880021423101425 -0.06331003457307816 -0.05321279540657997 -0.054178450256586075 0.030668873339891434 0.003077327273786068 -0.16289542615413666 -0.0017531287157908082 -0.06542831659317017 -0.06942756474018097 -0.12537530064582825 -0.05253976210951805 -0.017227619886398315 -0.0961918830871582 0.0273634884506464 -0.016616713255643845 -0.010222731158137321 0.008070958778262138 -0.0016409029485657811 0.01446023304015398 -0.008127635344862938 0.05250941216945648 0.02149287983775139 0.06835250556468964 0.01718083769083023 -0.10313750058412552 0.05352448672056198 -0.06731043756008148 -0.12827634811401367 0.037449683994054794 0.014899776317179203 -0.03526284545660019 -0.11516478657722473 0.04022636637091637 0.04181307181715965 -0.047427091747522354 -0.04239938035607338 -0.05115446448326111 -0.02239503525197506 -0.11985573917627335 -0.053248874843120575 0.06313968449831009 -0.05741497129201889 -0.04313768073916435 0.057558391243219376 -0.09970872104167938 -0.03780036047101021 -0.04582737758755684 0.03876898065209389 -0.05079197883605957 0.05917683243751526 0.044843874871730804 -0.06765598058700562 -0.017758265137672424 -0.01991114392876625 0.050470251590013504 -0.13659945130348206 -0.012263184413313866 -0.044247422367334366 0.045137953013181686 0.01812830939888954 -0.0292324461042881 -0.0007327460334636271 -0.0009142227354459465 -0.02621900849044323 -0.025865184143185616 0.029099421575665474 0.0831938087940216 -0.07002498209476471 -0.0009082880569621921 -0.01652020588517189 0.05802963301539421 0.044124871492385864 -0.01382906548678875 -0.06518720090389252 -0.06566952168941498 -0.09402037411928177 -0.09539429098367691 -0.00033244615769945085 -0.11228867620229721 -0.027375780045986176 -0.020571399480104446 0.020164502784609795 -0.02789928764104843 0.049799393862485886 0.03878069669008255 -0.03614451363682747 -0.06818674504756927 0.03823339194059372 -0.016681743785738945 0.022597884759306908 -0.005211218725889921 0.10224223881959915 -0.0129458112642169 -0.01862160861492157 -0.06475921720266342 0.008865108713507652 0.10523783415555954 -0.07446485757827759 -0.02777182310819626 -0.013359185308218002 -0.04120739549398422 -0.014136574231088161 -0.0606345534324646 -0.06792103499174118 -0.07915358990430832 -0.020660532638430595 -0.04232106730341911 0.08472549915313721 0.0004544086114037782 -0.09931665658950806 -0.07716529816389084 0.020989207550883293 0.07351536303758621 -0.0406968854367733 -0.008536615408957005 0.10067055374383926 0.004673731978982687 -0.042443860322237015 0.06407001614570618 -0.010359451174736023 -0.05477411672472954 0.001393662765622139 -0.026145299896597862 -0.016831720247864723 -0.015471301041543484 -0.04701591655611992 0.06051848456263542 -0.08942432701587677 0.053275447338819504 0.0038246323820203543 0.03723030909895897 -0.07615587115287781 -0.008093323558568954 -0.09368159621953964 -0.07726675271987915 -0.07233665138483047 0.06509998440742493 -0.0719892829656601 0.01848997175693512 0.06729084998369217 -0.039573051035404205 -0.08872798830270767 -0.08016978949308395 -0.16155344247817993 -0.010579926893115044 -0.09911924600601196 -0.012104736641049385 -0.05598577857017517 0.02765274979174137 0.03334297984838486 -0.05930037796497345 -0.040975358337163925 -0.06637231260538101 0.10525975376367569 -0.0049185846000909805 -0.024305174127221107 -0.0213992390781641 0.061188120394945145 -0.027365591377019882 0.007878598757088184 0.04117933660745621 0.06764310598373413 -0.05128288269042969 -0.07286374270915985 -0.03038785792887211 0.0065931216813623905 -0.018060417845845222 0.053568627685308456 -0.06868996471166611 0.004627728369086981 0.11014680564403534 0.0021457572001963854 0.022760115563869476 0.05440656468272209 -0.058707818388938904 0.026703836396336555 -0.03271437808871269 -0.03604484722018242 -0.1371982842683792 -0.06381149590015411 0.02405131421983242 -0.06313184648752213 -0.1535283923149109 -0.06702852249145508 -0.027709346264600754 -0.05743661895394325 -0.0015892534283921123 0.056216754019260406 0.04064938426017761 0.0012076168786734343 0.03087015077471733 -0.03430876135826111 -0.03231507167220116 -0.08143160492181778 0.02754683420062065 -0.05901483818888664 0.07064768671989441 -0.04847905412316322 -0.04907621443271637 -0.06630884110927582 -0.07283854484558105 0.02698792703449726 0.077287957072258 0.017671430483460426 -0.017760412767529488 0.0065660434775054455 0.010884792543947697 -0.018170243129134178 -0.010425022803246975 0.7898322343826294 -0.04728187620639801 -0.1222265437245369 -0.09836035966873169 0.026327168568968773 0.9069149494171143 -0.004513625521212816 0.05050983279943466 0.7567625045776367 0.7830495834350586 -0.06711342185735703 0.03408714011311531 -0.06470783799886703 -0.047836169600486755 0.7779721021652222 -0.08323974907398224 -0.1388050764799118 -0.05367952957749367 -0.0021561123430728912 0.8892329931259155 -0.12647415697574615 -0.049854401499032974 0.8182562589645386 -0.027753183618187904 -0.09219751507043839 0.12831845879554749 0.1471564620733261 0.8166362643241882 0.0782075747847557 -0.1104544997215271 0.9323326349258423 0.8358920812606812 0.8009559512138367 0.8194438219070435 0.024720897898077965 -0.05324164777994156 0.7558067440986633 0.7185738682746887 0.009659548290073872 -0.07807698100805283 -0.01993498019874096 0.4408780634403229 0.08339859545230865 -0.10818810015916824 -0.14837044477462769 0.8835622072219849 0.03455083444714546 0.43240776658058167 0.01734127290546894 0.547348141670227 0.018266627565026283 -0.013859224505722523 0.004983794409781694 0.8474246263504028 -0.028404811397194862 0.9646267294883728 -0.013829485513269901 0.6663004755973816 0.8453091979026794 0.8788456916809082 0.08497019857168198 -0.05055273324251175 0.9896029233932495 -0.07786005735397339 0.8095205426216125 0.060412775725126266 0.8999250531196594 0.7713858485221863 0.9011121392250061 0.9855964183807373 0.6938608288764954 -0.017011253163218498 -0.1999552845954895 0.8470616936683655 0.022094689309597015 0.06389474123716354 -0.03617241233587265 -0.04143032431602478 0.8835116624832153 -0.008444549515843391 0.5836837887763977 1.009455680847168 -0.045379638671875 0.038122016936540604 -0.16832563281059265 0.8207892775535583 -0.003050996456295252 0.06704350560903549 0.05670201778411865 0.7620430588722229 0.028453798964619637 0.8320621252059937 0.014995158649981022 -0.013755640015006065 -0.027677547186613083 -0.003962107468396425 -0.005870437249541283 -0.02979518100619316 -0.12407993525266647 0.06969695538282394 -0.1332673579454422 0.850610077381134 0.8878076076507568 -0.0520789697766304 0.6725670099258423 0.10157494992017746 0.8464376330375671 0.03242669627070427 -0.0016163692343980074 0.03747120127081871 -0.05630102753639221 -0.04212821274995804 0.01623930037021637 -0.13481193780899048 0.8767825961112976 0.8494754433631897 0.02901335246860981 0.0650172010064125 0.8741254806518555 0.01140989176928997 0.9018195867538452 -0.07104127109050751 0.9407455325126648 0.020871154963970184 0.01980174332857132 0.06249745190143585 0.12077738344669342 -0.09687532484531403 0.020848605781793594 0.02673005312681198 -0.2007589489221573 -0.14114739000797272 0.8499966263771057 0.845780611038208 -0.17338605225086212 0.8650125861167908 1.0259621143341064 0.8881364464759827 0.8938251733779907 0.10056992620229721 0.09051534533500671 -0.0259281974285841 -0.01824907585978508 -0.06193597614765167 -0.04328595846891403 -0.0008746745297685266 0.8567857146263123 0.04224904999136925 -0.11539106070995331 0.7856523990631104 -0.04530850797891617 -0.19411158561706543 0.9134110808372498 -0.02032548189163208 0.8821015357971191 0.08239943534135818 0.024973658844828606 0.9900004267692566 -0.049434956163167953 0.03309627249836922 -0.05160103738307953 -0.05214238911867142 0.07302792370319366 0.8136112689971924 -0.12115219980478287 -0.05389794334769249 0.9264662861824036 -0.042163170874118805 0.8633641004562378 0.9618606567382812 -0.0499221570789814 0.9050546288490295 0.9045116305351257 -0.08479846268892288 0.014618377201259136 0.7741628289222717 0.8434174060821533 -0.03046872653067112 0.0182083398103714 0.4506753385066986 0.0006510709645226598 0.8240998983383179 0.05886145681142807 0.8377736210823059 0.8597604632377625 -0.09532275050878525 -0.018569299951195717 0.9655598998069763 0.9651347398757935 -0.059111256152391434 0.8898016214370728 0.838882327079773 0.05617755278944969 -0.14367832243442535 0.02024889551103115 0.8438118696212769 0.015618824400007725 -0.05649809539318085 0.02397140860557556 0.021546822041273117 0.7231273055076599 -0.12367652356624603 0.010756470263004303 1.0311298370361328 0.13973113894462585 -0.009028852917253971 -0.06159939616918564 -0.03733689337968826 0.4296300709247589 0.9316920638084412 0.5631082057952881 -0.08603859692811966 -0.045977648347616196 0.9935162663459778 0.6758329272270203 -0.01829398237168789 -0.026817945763468742 0.5891026854515076 -0.04706325754523277 0.8785651326179504 -0.0339713953435421 -0.013691466301679611 0.8664215207099915 0.05166684836149216 0.08067609369754791 0.899083137512207 0.02255236543715 -0.035086628049612045 -0.04194900393486023 0.9039427638053894 0.8501532077789307 -0.08632657676935196 -0.10202085226774216 0.803209662437439 0.002161895390599966 -0.03253379836678505 -0.027292031794786453 -0.04658903554081917 0.012452399358153343 -0.04445246234536171 0.026106050238013268 -0.047717321664094925 0.9330242276191711 0.9035311341285706 -0.06095339357852936 0.7545866966247559 -0.05062364414334297 -0.026943767443299294 -0.08823779970407486 -0.09261700510978699 -0.13377545773983002 0.8903151750564575 -0.2270325869321823 -0.052881017327308655 0.59774249792099 1.006231427192688 0.04839502274990082 -0.05820755660533905 -0.03927136957645416 -0.08742690086364746 -0.0745585709810257 0.09473531693220139 -0.03288433328270912 0.0004790165403392166 -0.18556569516658783 0.09623576700687408 -0.11079258471727371 0.01315406896173954 0.00676881056278944 0.9066511988639832 -0.03739625960588455 0.10363898426294327 -0.00429640943184495 -0.07127200812101364 0.8915733098983765 -0.029350033029913902 -0.10050836205482483 -0.0457400418817997 0.018574193120002747 -0.02082015387713909 -0.016179021447896957 -0.11144289374351501 0.8332660794258118 0.06780846416950226 -0.06599509716033936 -0.17687693238258362 -0.18394522368907928 -0.0705893337726593 0.08411348611116409 -0.020107923075556755 0.8732059001922607 -0.10101470351219177 0.05172830820083618 0.08855506777763367 0.059796564280986786 0.03902128338813782 0.06202777102589607 -0.038908038288354874 -0.00760335847735405 0.9383159279823303 -0.13125759363174438 0.06217702850699425 -0.10750839114189148 0.021609218791127205 -0.01969742402434349 0.11956355720758438 -0.05447899550199509 -0.037562862038612366 -0.09630724042654037 -0.06314055621623993 -0.055573079735040665 0.08509989827871323 -0.02875606343150139 0.13845866918563843 -0.04707174003124237 -0.04385225847363472 -0.10058224201202393 -0.06417836248874664 0.050989896059036255 -0.017575373873114586 0.060978926718235016 -0.18120020627975464 -0.10349451750516891 -0.05470489338040352 -0.043693412095308304 0.029481275007128716 0.07632765918970108 0.08243074268102646 -0.09123124927282333 -0.05709400027990341 -0.03059765137732029 -0.033955495804548264 0.1918264627456665 -0.005452723708003759 -0.027186319231987 0.9597705006599426 0.12830907106399536 -0.13262125849723816 -0.07402242720127106 -0.09389432519674301 0.8781654238700867 -0.1333814412355423 0.004971150308847427 0.7965877056121826 0.9165069460868835 0.05810566619038582 0.8672906756401062 0.050160154700279236 -0.08221688866615295 -0.009840353392064571 0.061069246381521225 0.036167170852422714 -0.02422484941780567 -0.040155813097953796 -0.07006072998046875 